//Numpy array shape [128]
//Min -0.054655428976
//Max 0.085530310869
//Number of zeros 0

#ifndef B11_H_
#define B11_H_

#ifndef __SYNTHESIS__
_3_bias_t b11[128];
#else
_3_bias_t b11[128] = {-0.0406888090, -0.0320985951, -0.0068614525, 0.0230868254, -0.0288437605, 0.0034357239, 0.0521842279, -0.0083857151, 0.0284798872, -0.0190176032, 0.0140494304, -0.0207721107, -0.0141356084, 0.0272389073, 0.0635892227, 0.0509188585, 0.0445481353, -0.0349120088, 0.0326673836, 0.0053844000, -0.0178161580, -0.0339265876, 0.0635104701, -0.0509796925, 0.0077778366, -0.0397496149, 0.0578362122, 0.0824841484, 0.0491832756, -0.0145540573, -0.0247971080, -0.0159338024, 0.0091229044, 0.0140442187, -0.0433818139, -0.0038723545, 0.0500766151, 0.0511281304, 0.0005460386, 0.0566302724, 0.0453543067, 0.0691904798, 0.0244012363, 0.0183930546, 0.0582873896, -0.0039531942, -0.0546554290, 0.0672840998, 0.0034660704, 0.0761592835, 0.0739053935, -0.0538908504, -0.0126254559, -0.0337358415, -0.0308369920, 0.0087352395, 0.0445205048, -0.0096017867, 0.0070269867, 0.0658583194, -0.0019867660, -0.0348950028, 0.0034344327, -0.0094436379, -0.0076810787, -0.0265183244, 0.0686897263, 0.0216730610, 0.0168892704, -0.0343318358, -0.0290558133, 0.0393343121, 0.0486620218, -0.0003422919, -0.0092057595, 0.0329286791, -0.0079451986, 0.0374576375, 0.0199572518, 0.0169658307, 0.0188466609, 0.0607047789, 0.0199762862, -0.0229932815, -0.0457907841, -0.0222417153, 0.0111014182, 0.0377912894, -0.0348851345, 0.0569642298, -0.0089629106, -0.0012681911, -0.0230708588, -0.0267562419, 0.0177618489, 0.0065468471, 0.0602844730, 0.0718300641, 0.0812237486, 0.0666586161, -0.0033668985, 0.0648239031, 0.0624752566, 0.0301293675, -0.0102040879, -0.0029228069, -0.0450518169, 0.0282253884, 0.0813677758, -0.0069626812, -0.0168801490, -0.0362212546, -0.0408633687, -0.0154549442, 0.0020673841, -0.0018434343, 0.0211928543, 0.0406720340, 0.0704383478, 0.0344099477, 0.0011249452, 0.0591467023, 0.0305450857, -0.0246413536, 0.0445599109, 0.0855303109, 0.0603869669, -0.0014279471};

#endif

#endif
