//Numpy array shape [1, 256, 784]
//Min -0.200379699469
//Max 0.154020756483
//Number of zeros 0

#ifndef W10_H_
#define W10_H_

#ifndef __SYNTHESIS__
_0_weight_t w10[200704];
#else
_0_weight_t w10[200704] = {-0.0139337666, 0.0263486821, -0.0201821495, 0.0119753545, 0.0244432669, 0.0248724688, 0.0105139399, 0.0223814566, 0.0393008366, 0.0005324097, -0.0029793188, -0.0401008390, -0.0234280378, 0.0193200298, -0.0258152001, 0.0281310156, 0.0097546941, 0.0050469134, -0.0037598931, 0.0066073183, 0.0039812201, -0.0047317734, 0.0308292061, 0.0030847008, 0.0341691375, 0.0044529033, -0.0360179618, -0.0023814081, -0.0524252504, 0.0031588713, 0.0264752582, -0.0193429776, 0.0064260568, 0.0329076275, 0.0382275321, -0.0057111019, 0.0228033662, 0.0247092061, 0.0009796537, -0.0092877466, 0.0081170266, -0.0054226052, -0.0098370807, 0.0332796425, -0.0015577194, 0.0348661020, -0.0064365789, -0.0046297084, -0.0312489290, -0.0086286040, -0.0030910762, 0.0074922182, 0.0302170310, 0.0177516919, -0.0246690828, 0.0256381072, -0.0132442033, -0.0195795782, 0.0366581902, -0.0186743494, -0.0008081673, 0.0239069350, -0.0120864501, -0.0038441650, 0.0175850429, 0.0270461068, 0.0269307662, 0.0118587520, -0.0192109309, 0.0283468049, 0.0128948903, -0.0254941247, -0.0151314223, 0.0210863911, -0.0041259467, -0.0238128528, -0.0213040411, -0.0192293655, -0.0102908220, 0.0250116326, -0.0269882046, -0.0265466776, 0.0163434986, 0.0245432965, 0.0389584005, 0.0082726134, -0.0088089677, -0.0014955092, -0.0086586028, -0.0227614660, 0.0364769846, 0.0337314941, 0.0172068607, -0.0083683059, 0.0220735110, 0.0007517006, 0.0399693325, 0.0164968092, 0.0307441633, 0.0001607653, -0.0274779052, -0.0016329912, 0.0092792893, -0.0115407966, 0.0029839254, 0.0087297820, -0.0167322848, -0.0105247395, 0.0257326718, -0.0229023416, 0.0101081040, 0.0232588649, 0.0214288961, 0.0403836928, 0.0342637375, -0.0326565616, 0.0284433831, 0.0135344192, 0.0165729932, 0.0410194658, 0.0290947203, 0.0168175958, 0.0232481658, -0.0174337570, 0.0216331854, -0.0383793078, 0.0058891848, -0.0239645932, -0.0280365758, -0.0059160967, -0.0165081713, 0.0162483566, 0.0150028281, -0.0149403149, -0.0233975705, -0.0236017834, -0.0176327825, 0.0108748088, 0.0223448537, 0.0488390215, 0.0081708208, 0.0105688060, 0.0139826182, -0.0150585743, -0.0019438136, 0.0218007006, 0.0453264602, 0.0281221867, -0.0137842475, 0.0195729174, -0.0243860129, 0.0219505411, 0.0345508642, 0.0291868765, 0.0073591419, -0.0040999530, 0.0170712806, 0.0042481753, -0.0120800454, 0.0144603988, -0.0224002078, -0.0080425944, 0.0140548758, 0.0290527046, 0.0245820247, -0.0132159228, -0.0049954201, 0.0250323247, -0.0118556889, 0.0199923012, -0.0278720595, -0.0011796977, 0.0194992255, 0.0163277071, 0.0207353402, -0.0150170904, 0.0213709492, -0.0001206258, 0.0119114863, 0.0024626693, -0.0196516998, 0.0293667261, -0.0221994501, -0.0292688627, 0.0115835192, -0.0117491549, 0.0356126465, -0.0163201392, 0.0139652286, -0.0331776366, -0.0215827934, -0.0003507862, 0.0033101754, 0.0178082492, 0.0031262829, 0.0040433635, -0.0139966598, -0.0281108227, 0.0426177643, -0.0107151391, -0.0392347090, 0.0341932438, -0.0028129348, -0.0192598775, 0.0408516452, -0.0000248322, 0.0050484240, 0.0014574882, 0.0484130010, 0.0383356661, 0.0102040786, -0.0271443166, 0.0042104451, -0.0274713654, -0.0384500995, 0.0185477454, 0.0289571397, 0.0165575519, 0.0209561791, -0.0090624932, 0.0155091248, -0.0211658124, -0.0003289134, -0.0254848320, -0.0393218733, 0.0006542641, -0.0059573217, -0.0098099345, -0.0235728770, 0.0087628365, -0.0230767950, -0.0261632353, -0.0317043476, 0.0148763349, -0.0411739349, 0.0054220799, -0.0017339736, 0.0140478602, -0.0040895930, 0.0010041696, -0.0172022190, -0.0131214475, 0.0041735978, -0.0169351306, 0.0270065442, -0.0017820729, -0.0326563418, 0.0109912371, 0.0063599790, 0.0110659767, 0.0046624020, -0.0054856068, 0.0321382582, -0.0391864441, 0.0048155724, 0.0150036840, -0.0232221391, 0.0112459594, 0.0237068962, -0.0056073917, -0.0066470345, -0.0010610474, -0.0021239908, -0.0285922773, -0.0202904716, 0.0150578525, -0.0027010860, -0.0185616501, 0.0153256701, 0.0130967759, -0.0025926558, 0.0221483540, 0.0202173796, 0.0375257544, -0.0022746199, -0.0063937260, 0.0092239128, 0.0255066529, 0.0300222225, -0.0188631434, -0.0290524084, -0.0193230789, -0.0305316430, -0.0066190474, -0.0362812988, -0.0075558638, 0.0002053683, -0.0404075496, 0.0232836567, 0.0197183918, 0.0137242256, -0.0372443460, 0.0257212371, -0.0021507882, 0.0453654230, -0.0118539082, -0.0114952847, -0.0300181806, 0.0212092083, 0.0314314254, 0.0327014700, 0.0272626374, 0.0217030421, 0.0195448231, 0.0323258676, -0.0034219604, -0.0357024670, 0.0225373134, 0.0458195843, 0.0067968508, 0.0268487986, 0.0051660282, 0.0350366235, -0.0129828323, 0.0575187206, 0.0222325660, 0.0091435686, 0.0379584357, 0.0044718841, 0.0256997198, 0.0018965575, -0.0119588561, 0.0187343340, -0.0037600859, -0.0082499105, 0.0086970432, 0.0255190600, -0.0198603403, -0.0220006574, -0.0206596721, 0.0049052914, 0.0150150694, 0.0223219693, 0.0036558271, 0.0204972606, -0.0152455308, -0.0017548171, 0.0253303088, 0.0210703183, -0.0393403508, 0.0125053758, -0.0108104572, 0.0070456853, 0.0338252336, 0.0006336743, 0.0155864134, 0.0133130858, -0.0284343082, -0.0114994794, -0.0213202331, 0.0039059671, -0.0154086770, 0.0435340516, -0.0336591750, -0.0083742067, 0.0282535795, 0.0026842572, 0.0085748183, 0.0318142623, 0.0357796811, 0.0190272294, -0.0002488542, 0.0307992920, -0.0183203276, 0.0139255915, -0.0020834296, 0.0066281334, -0.0207546353, 0.0145134069, -0.0083685899, 0.0059326100, -0.0132340584, 0.0285777953, 0.0254538320, 0.0159036331, -0.0199737847, 0.0233167168, -0.0124531304, 0.0397563167, -0.0145613672, -0.0001409390, 0.0240320861, 0.0126109524, 0.0206071492, 0.0042165606, -0.0181994438, -0.0162617080, -0.0054992484, 0.0280850902, 0.0090142414, -0.0093298238, 0.0123133063, -0.0083465911, -0.0209601261, -0.0162808914, 0.0200784709, 0.0367593132, 0.0156762749, 0.0055717407, -0.0161233563, -0.0241731182, -0.0051133349, 0.0357258245, 0.0011587645, -0.0475463495, -0.0204673950, 0.0125975823, 0.0020257581, -0.0237122569, -0.0365503877, -0.0378158391, -0.0254095830, -0.0220481846, -0.0138785699, 0.0192873813, 0.0032319524, -0.0334920585, 0.0122530479, -0.0376604758, 0.0431078225, -0.0099487277, -0.0338238925, -0.0277960040, 0.0078815315, 0.0404056311, -0.0299451314, -0.0004801902, 0.0175660867, 0.0041539874, -0.0258168988, 0.0074604731, 0.0340939127, 0.0109295268, -0.0264762286, 0.0284897760, 0.0392052792, 0.0088102464, 0.0258667078, 0.0061880141, 0.0166831147, -0.0257631056, -0.0237710401, 0.0252970401, 0.0366063565, 0.0300800707, 0.0190446805, -0.0079844212, -0.0050625554, -0.0046620187, -0.0257832222, 0.0081757577, 0.0238520149, -0.0115227299, 0.0303066671, -0.0062254407, -0.0018867702, -0.0341280848, 0.0258420408, 0.0472353026, -0.0058279173, 0.0025612835, 0.0245804936, 0.0329187289, -0.0216133073, 0.0343052186, -0.0046293885, 0.0063140346, 0.0183309540, -0.0001759379, -0.0173633806, 0.0189337470, 0.0029816141, 0.0383488163, -0.0280208029, -0.0010374457, -0.0044515254, -0.0320190527, -0.0448527075, -0.0049890685, -0.0402873121, 0.0072097802, 0.0248159040, 0.0421635024, -0.0275983382, -0.0027192028, -0.0023612375, 0.0321477354, -0.0076610972, 0.0114863236, -0.0162624717, -0.0034839604, -0.0305175222, 0.0216401815, 0.0479524732, 0.0265842061, -0.0088642221, 0.0069412501, 0.0221056100, 0.0203499831, 0.0376502238, -0.0165032633, -0.0078522852, 0.0320894271, 0.0112064276, -0.0240334794, 0.0438211672, 0.0270230956, 0.0160230193, 0.0295670498, -0.0414248370, -0.0340298302, 0.0310342778, -0.0118890889, 0.0100596715, 0.0249185618, 0.0147270551, -0.0343766250, -0.0089560840, -0.0017840425, -0.0082379514, 0.0415358655, -0.0135898003, -0.0062812017, 0.0208395217, 0.0439630337, 0.0002174466, 0.0221537575, 0.0191989020, -0.0105888387, 0.0191564132, -0.0097563351, 0.0184890497, 0.0323285200, 0.0152625330, -0.0042116791, 0.0218399912, -0.0062441104, -0.0074975481, 0.0206081104, 0.0380007364, -0.0236139409, 0.0207638275, 0.0064379969, -0.0383910537, 0.0295246411, -0.0274328478, -0.0011583405, 0.0053920690, 0.0264950525, 0.0349616408, -0.0129088080, -0.0092804683, 0.0327845253, -0.0152920689, -0.0017947218, 0.0254315268, 0.0273001809, 0.0240952410, -0.0276595950, -0.0227979869, 0.0327342190, -0.0257991962, -0.0183218177, 0.0156732947, -0.0155064166, -0.0075920122, -0.0145525234, -0.0260179639, 0.0312309973, 0.0420814864, -0.0029014519, 0.0452612862, 0.0457943045, 0.0387616567, 0.0227343440, -0.0335098393, 0.0268401448, 0.0041764211, 0.0223507620, 0.0110358419, 0.0069948006, -0.0037638962, 0.0320615917, 0.0110171083, 0.0308932327, -0.0049759485, -0.0166428108, 0.0031275293, -0.0323539823, 0.0075286645, 0.0269679315, -0.0110251401, 0.0299685206, -0.0236239694, 0.0142297121, -0.0039874096, 0.0258579720, 0.0280180536, 0.0029863855, 0.0340411514, -0.0247391853, -0.0253247917, 0.0268487465, 0.0194307901, -0.0184480399, -0.0346404389, 0.0326882824, -0.0035422717, 0.0047905170, -0.0205630008, 0.0339162946, 0.0265051369, -0.0021532022, -0.0143232662, -0.0191907082, -0.0139411287, 0.0157911256, -0.0033655465, 0.0382401384, -0.0097596413, 0.0379613824, 0.0133131575, 0.0007145231, -0.0106184725, 0.0060778181, 0.0014858327, 0.0453892387, 0.0121913636, 0.0183507130, -0.0184524953, -0.0027727014, -0.0028500080, -0.0298469085, 0.0107409200, -0.0086704930, 0.0056588971, -0.0050564469, -0.0171987619, 0.0120891221, -0.0131337354, 0.0244838558, 0.0205322541, -0.0023742239, -0.0180586688, 0.0373169258, 0.0153855244, -0.0200782772, -0.0272702891, -0.0326156653, -0.0299915336, 0.0126046333, 0.0250217896, -0.0112950038, 0.0120563656, 0.0071868640, -0.0306684896, -0.0330845080, 0.0419084840, 0.0019026825, 0.0325438567, -0.0275360048, 0.0252890363, 0.0262081698, 0.0249422230, 0.0026702771, 0.0143340612, -0.0250446834, -0.0065235659, -0.0038297090, -0.0228066593, 0.0327101797, -0.0256909560, 0.0094535872, 0.0175490323, 0.0290538035, 0.0188625734, -0.0182451028, 0.0165706240, -0.0211286508, 0.0115760621, 0.0399415158, 0.0058445176, -0.0181653313, 0.0261092279, 0.0339113846, 0.0082789510, 0.0013721827, -0.0193316955, 0.0442661829, 0.0147215268, 0.0361961536, 0.0148557536, -0.0179201495, -0.0082491646, -0.0155506749, 0.0019161003, 0.0232494101, -0.0033492013, 0.0098082731, 0.0245175958, -0.0119968988, 0.0148622766, 0.0132870115, 0.0265128445, 0.0171656013, -0.0248795506, 0.0475034304, 0.0297830459, -0.0038547923, 0.0138837164, 0.0092705088, 0.0226280876, 0.0137106720, 0.0106173577, -0.0039707776, 0.0103692356, 0.0289428867, -0.0016613944, 0.0098411608, 0.0239988007, -0.0071355081, -0.0027583493, -0.0392011926, 0.0202734675, 0.0044290009, 0.0118178669, 0.0217100009, -0.0259697400, 0.0399003588, 0.0182939339, 0.0265248455, -0.0060683088, 0.0164267924, -0.0435352623, 0.0158495195, -0.0455017760, -0.0297676828, 0.0229487922, -0.0052339039, -0.0144003090, -0.0110863997, -0.0130931791, 0.0101675345, 0.0074725435, 0.0152140763, 0.0315198116, -0.0227788016, -0.0049852272, 0.0160841551, 0.0084280046, 0.0215578973, -0.0292570628, 0.0355844013, 0.0018504310, -0.0117221773, 0.0141515555, 0.0338138267, -0.0114475507, 0.0341261625, 0.0084838234, -0.0512247756, 0.0321903042, 0.0315886103, -0.0154408840, 0.0422353633, -0.0388389751, -0.0201992691, 0.0302529577, 0.0314068273, -0.0043299398, -0.0005193265, -0.0206093714, -0.0240658503, -0.0056758262, -0.0292376596, 0.0062129637, -0.0187719893, 0.0001077561, -0.0206675231, 0.0006523374, 0.0061473520, 0.0000142965, 0.0077828881, 0.0354537852, 0.0154652987, 0.0347419903, -0.0006125213, 0.0000901585, -0.0224197377, 0.0029973374, 0.0372133926, -0.0295867026, -0.0159414094, 0.0026388580, 0.0082385857, 0.0233266708, 0.0170889124, -0.0100365467, 0.0033186346, -0.0396902040, -0.0266940594, -0.0018821581, -0.0206570383, 0.0108400295, -0.0185818300, 0.0116852717, 0.0368174948, -0.0172191523, 0.0341592357, -0.0128254201, -0.0133267818, -0.0218460690, -0.0149439257, -0.0238481145, 0.0140123330, -0.0120088104, 0.0089347847, -0.0390317068, -0.0061206860, 0.0059429407, -0.0161297712, 0.0017230031, 0.0208083112, -0.0261801817, 0.0116336737, 0.0003671473, 0.0151080415, 0.0067407112, -0.0227318369, 0.0203887634, -0.0168854129, 0.0071389652, 0.0041155694, -0.0075020748, 0.0290713999, 0.0095166378, 0.0143062556, 0.0173017178, 0.0286533143, 0.0091729276, -0.0255272668, -0.0182863679, 0.0212937351, -0.0086442279, -0.0140226353, 0.0181427132, -0.0225730073, 0.0284190793, 0.0418749116, 0.0366560854, 0.0331974886, 0.0062627075, -0.0188866518, 0.0214642789, -0.0312830620, -0.0013918173, 0.0150733935, 0.0008022566, 0.0078423172, 0.0220890902, -0.0236735176, -0.0042609465, 0.0044439598, -0.0253827330, 0.0441216379, 0.0100931302, -0.0158140399, -0.0341723710, -0.0175600313, -0.0275575146, 0.0204845294, -0.0099416822, -0.0266592950, 0.0384226069, -0.0139700687, 0.0035338858, -0.0008101393, -0.0267116819, -0.0291173216, 0.0244475044, 0.0013200919, -0.0049430346, -0.0118482327, -0.0442789160, 0.0046159443, -0.0263089258, 0.0098162526, 0.0460559353, -0.0298535656, 0.0305426996, 0.0308544040, -0.0123903193, 0.0099809421, 0.0045142793, 0.0421668664, 0.0227620006, 0.0320316292, -0.0151914014, -0.0203873347, 0.0092510842, 0.0289978217, 0.0165423956, -0.0352518409, -0.0268055312, -0.0279965587, -0.0311095621, -0.0130432239, 0.0330549404, 0.0250674523, -0.0209314059, 0.0060094162, 0.0126828896, -0.0245780125, -0.0085059609, 0.0312589891, -0.0234590676, 0.0197319295, 0.0256932545, -0.0368754938, -0.0189487468, 0.0271493122, 0.0220249295, -0.0512718000, 0.0031510233, 0.0086121541, -0.0125288945, -0.0059808637, 0.0218061302, 0.0020666856, 0.0402193069, -0.0340069085, -0.0131911207, 0.0289391782, -0.0138463443, -0.0321921296, 0.0025768934, -0.0128938239, -0.0437683314, 0.0231352113, -0.0127574848, 0.0089060441, -0.0053260722, -0.0171857830, 0.0319917127, 0.0304261651, 0.0387898348, 0.0241648443, 0.0392862335, 0.0044269925, 0.0426137559, -0.0365318730, -0.0099771386, -0.0239298288, -0.0085093472, -0.0302374028, 0.0046972553, -0.0386776738, -0.0223162994, 0.0134088993, -0.0077590668, 0.0206357613, -0.0129960738, 0.0195898712, 0.0087405359, 0.0280826092, 0.0181125514, 0.0194780864, 0.0003424643, -0.0403572991, 0.0092951627, 0.0026732918, 0.0428492092, -0.0037341621, -0.0105712749, 0.0188513044, 0.0027490060, -0.0141989226, 0.0392856076, -0.0127759557, 0.0191044994, 0.0070119998, -0.0238389038, -0.0273372252, 0.0004704348, 0.0117504690, 0.0037563050, 0.0341600999, 0.0252325106, -0.0234357025, -0.0342098214, 0.0404178537, -0.0146122174, -0.0279861130, -0.0330207758, 0.0105744898, -0.0165942833, -0.0222132932, 0.0333246775, -0.0114254467, 0.0214289539, -0.0058730110, 0.0152427834, -0.0333337449, 0.0023236526, -0.0212572850, 0.0018495040, 0.0098031200, -0.0061066877, 0.0075491699, 0.0132469060, 0.0153485825, 0.0042891130, -0.0252818707, 0.0161531530, 0.0038759832, -0.0172154419, -0.0365502834, 0.0235766154, -0.0168624129, -0.0143161761, -0.0070378808, 0.0022859264, 0.0057151518, 0.0215978902, -0.0139523847, 0.0327174217, -0.0033462238, -0.0109815029, -0.0311513375, 0.0381440073, -0.0210976787, 0.0205263235, 0.0096956454, 0.0180229340, -0.0300805978, -0.0113161067, 0.0360674746, -0.0116025992, -0.0190192163, 0.0355029702, -0.0235258471, -0.0019610559, 0.0036158084, -0.0398298912, 0.0197580736, 0.0323064364, 0.0428043902, -0.0288338270, 0.0356149524, -0.0075858398, 0.0136710452, 0.0250678901, -0.0108644692, 0.0421723127, 0.0392470770, -0.0427882113, 0.0294998996, -0.0138182556, 0.0034147506, 0.0238184612, -0.0076550427, -0.0071396814, 0.0300865304, 0.0489504151, -0.0057774754, 0.0056937379, -0.0188487805, 0.0054236776, -0.0177281201, -0.0001812716, -0.0260307714, -0.0206349045, 0.0106907412, 0.0098489244, -0.0088989390, -0.0208106153, 0.0104153054, 0.0328624435, 0.0391887352, 0.0313722640, -0.0226756521, 0.0330176242, 0.0254578684, -0.0226771645, -0.0222887788, -0.0201435555, -0.0019497172, -0.0140553545, 0.0361881107, -0.0365247466, 0.0163934473, 0.0345970318, -0.0149399573, 0.0120361876, -0.0100773098, -0.0098178778, 0.0218901113, -0.0324419886, 0.0244681966, 0.0323158056, -0.0044032182, -0.0222538952, -0.0008134294, 0.0086831795, 0.0139823062, 0.0216945019, -0.0214406159, -0.0175796114, 0.0434586592, 0.0139566418, -0.0361903422, 0.0311205164, -0.0152885895, -0.0035826906, 0.0091303308, -0.0091777490, -0.0085598174, -0.0106198844, 0.0256520007, -0.0318084024, -0.0084869694, -0.0262892861, 0.0096187582, -0.0074335043, 0.0128173996, 0.0025403900, 0.0226489827, -0.0181520954, -0.0222745594, -0.0054825922, -0.0124008702, 0.0058074337, 0.0294381566, 0.0092254765, -0.0039619338, 0.0130733792, 0.0262402687, -0.0035617249, 0.0100239981, -0.0002521819, -0.0025916309, -0.0283572376, 0.0271657035, 0.0389611311, 0.0007161144, -0.0031631158, 0.0097232098, 0.0184890889, -0.0116444705, -0.0219099633, 0.0053515499, 0.0243454799, -0.0060394597, 0.0205646902, -0.0226132292, -0.0215025153, 0.0092817284, -0.0205096677, 0.0131109972, -0.0046292348, -0.0338311456, 0.0079460451, 0.0141920773, 0.0105260648, -0.0046281344, -0.0268889535, -0.0363609158, -0.0261293128, 0.0227992740, 0.0257025640, 0.0103051551, 0.0038198545, 0.0222541597, 0.0043203421, -0.0333673619, -0.0021296432, 0.0184453987, 0.0120486170, -0.0341230147, 0.0290743709, 0.0005429623, 0.0067411778, 0.0285219047, -0.0268818513, -0.0281584542, 0.0173196904, 0.0310320295, 0.0111361677, 0.0268132761, -0.0233249050, -0.0476757996, 0.0193387382, 0.0290314108, -0.0258785561, -0.0437302366, 0.0422178172, -0.0008099374, -0.0206912830, 0.0307779368, -0.0102413539, 0.0306500383, 0.0298653729, 0.0217791870, -0.0252193790, 0.0041680401, 0.0135166254, 0.0133710513, -0.0264289007, -0.0374683738, 0.0408792011, -0.0148104867, 0.0155084850, -0.0271188598, 0.0008782256, 0.0356234461, 0.0037012643, 0.0248652808, 0.0227948800, 0.0328541137, 0.0321238376, 0.0316511653, 0.0193394292, -0.0082787266, 0.0285312254, 0.0103347143, 0.0143351257, -0.0222020783, 0.0309453383, 0.0213046372, 0.0264556222, 0.0057626567, -0.0191975944, 0.0286589582, 0.0231239460, 0.0041736974, -0.0206954200, -0.0351229832, -0.0091501120, -0.0319908336, 0.0143171027, 0.0406404845, 0.0076808878, 0.0217702091, 0.0007821324, -0.0251445249, -0.0014933737, 0.0126977703, -0.0182268992, 0.0200254042, 0.0014416997, 0.0487207957, -0.0362311453, -0.0088497018, -0.0134879481, -0.0166113619, -0.0023150495, -0.0293412656, -0.0067372597, 0.0173729584, -0.0103160301, -0.0149745978, -0.0087470114, -0.0350371636, -0.0089663276, 0.0378953926, 0.0269405190, 0.0383461267, 0.0370783620, 0.0128748380, -0.0298489369, 0.0319977738, -0.0391788371, -0.0163502283, -0.0179428589, -0.0141487084, -0.0048174765, 0.0070770187, 0.0176818594, -0.0133544132, -0.0146993538, -0.0036387593, -0.0119554363, 0.0128223738, 0.0233942624, -0.0371980481, 0.0367900953, 0.0134932362, -0.0215171184, -0.0301559959, -0.0033622636, 0.0037233576, -0.0203309972, -0.0101911845, -0.0323543660, -0.0188558958, 0.0436012559, -0.0278384779, 0.0284026172, 0.0133362822, -0.0355824232, 0.0347965695, -0.0211100951, 0.0291931350, 0.0104940999, -0.0288335364, 0.0328591205, -0.0323851109, -0.0050189295, -0.0317248814, 0.0035106670, 0.0027505059, -0.0362675935, 0.0103211207, 0.0267609507, -0.0038791795, -0.0238489080, -0.0258508082, -0.0112794368, 0.0192847140, 0.0206652489, 0.0075317933, 0.0186630655, 0.0188780874, 0.0173219927, -0.0043816962, 0.0229788013, -0.0334575735, 0.0087000830, -0.0128182126, 0.0242686383, -0.0128994379, 0.0116206612, 0.0246061981, 0.0297938548, -0.0133840600, 0.0170141049, -0.0269250330, 0.0271517113, 0.0063424157, -0.0102575272, 0.0074130669, 0.0109973755, -0.0155327898, 0.0220870599, -0.0172015671, -0.0171939507, 0.0068391417, 0.0081965867, -0.0088439053, -0.0286170579, -0.0077038906, -0.0077143293, -0.0131477444, -0.0082837585, -0.0012800645, -0.0261481199, 0.0367052369, -0.0079305507, 0.0155891590, 0.0052879648, 0.0138438223, -0.0153835705, -0.0158949792, 0.0042043445, 0.0250962451, 0.0249811746, 0.0225097165, -0.0282334946, -0.0226999056, -0.0232046880, 0.0072818496, 0.0224928539, -0.0119982129, 0.0110202050, -0.0250036586, -0.0313116834, 0.0202731732, -0.0438712202, -0.0012828114, 0.0327405594, -0.0423952155, -0.0097545600, 0.0422811322, 0.0103811976, 0.0124319447, -0.0247407556, 0.0344413668, 0.0177122708, -0.0274201240, -0.0428938605, -0.0381200202, -0.0263398346, -0.0088256281, 0.0287007764, -0.0028753185, -0.0301788971, 0.0187828336, -0.0199397039, 0.0109292846, -0.0081834095, -0.0186622161, 0.0316485539, -0.0263874028, 0.0214247070, -0.0124310246, -0.0297850333, -0.0049989219, 0.0075717559, 0.0254157484, 0.0222404748, -0.0113319373, 0.0484424494, -0.0050691427, -0.0238604397, -0.0134886112, 0.0312150940, 0.0168010611, -0.0057672109, 0.0280331858, 0.0412828662, -0.0081596728, 0.0158331320, -0.0228711031, -0.0351968072, 0.0059816143, 0.0113522839, 0.0029064463, 0.0155511461, -0.0413616411, -0.0129485317, -0.0016286207, -0.0210816562, 0.0283580068, 0.0125223724, 0.0234639402, 0.0132883256, 0.0301787425, 0.0324819125, 0.0106750382, -0.0292758942, 0.0165540073, 0.0367336459, 0.0128083220, -0.0295050256, 0.0171292331, -0.0130456025, -0.0323483609, -0.0295355394, -0.0018332563, -0.0182315428, 0.0213688575, 0.0552344397, 0.0108742798, -0.0134423394, -0.0164045058, 0.0353534780, 0.0316084363, -0.0157360230, 0.0272401497, 0.0175275467, 0.0185539480, 0.0116544077, -0.0131002404, 0.0144261969, 0.0039750156, 0.0226535611, 0.0320101231, 0.0093540689, -0.0214091893, 0.0245495997, -0.0185280126, -0.0007018197, 0.0281828362, 0.0214811098, 0.0293016657, 0.0213900842, 0.0352299325, 0.0107815033, 0.0081097437, 0.0168193243, -0.0441454127, 0.0024650390, 0.0359385312, -0.0121770492, 0.0007520756, 0.0153960381, -0.0249153841, -0.0153974108, 0.0337829776, 0.0070780958, -0.0230741855, 0.0040707556, -0.0079815965, -0.0155682852, 0.0143804457, 0.0083131921, -0.0069859889, 0.0017982085, 0.0235341731, -0.0265831016, 0.0333754532, 0.0218354184, 0.0408198275, -0.0121699441, -0.0158878751, -0.0032416366, -0.0080382284, 0.0140102776, -0.0137639241, -0.0096323164, -0.0186955631, -0.0322588570, 0.0067231134, -0.0204058904, -0.0337849148, 0.0096968524, 0.0279691778, 0.0390145816, 0.0187996812, -0.0066134068, 0.0387179442, -0.0182537716, 0.0233059600, -0.0268633515, -0.0364479683, -0.0269669294, 0.0289787333, -0.0101212105, -0.0009235560, 0.0392692424, 0.0056365523, -0.0155597795, 0.0422609858, -0.0038719524, -0.0084763551, -0.0181765854, -0.0078989873, -0.0165433902, -0.0049585253, 0.0091341753, 0.0099976668, 0.0161343105, -0.0117150294, -0.0271952394, -0.0230207760, 0.0313667692, 0.0257864818, 0.0079222284, 0.0160376113, -0.0296855457, 0.0136173097, 0.0328347646, -0.0505262017, 0.0173111614, 0.0153070530, -0.0295790881, 0.0264401380, 0.0226902869, 0.0151740611, 0.0323758237, 0.0247622728, -0.0037424073, -0.0358698182, 0.0166003071, 0.0129932230, 0.0128036290, 0.0455258638, -0.0062546721, -0.0118955215, -0.0348578021, -0.0141993230, -0.0197860934, -0.0345970318, 0.0476156026, 0.0468049347, 0.0132310325, 0.0122782132, -0.0046760174, 0.0020662430, -0.0033048792, 0.0075606643, 0.0112259965, -0.0352052338, 0.0144673642, 0.0343069881, 0.0158722196, 0.0197711512, -0.0191180799, 0.0207170509, -0.0008112444, 0.0094429059, -0.0277819261, -0.0045603281, 0.0254654326, 0.0275206845, 0.0029203012, 0.0255539101, 0.0304903090, -0.0018045520, -0.0330017880, -0.0005796737, 0.0279933400, -0.0291680973, 0.0282911733, 0.0091927247, -0.0331685692, 0.0213640146, -0.0019433951, 0.0161159206, -0.0491219088, 0.0262021329, 0.0424524620, 0.0248679984, 0.0109762326, 0.0123960236, -0.0108506028, -0.0151083414, 0.0212453306, 0.0088185323, -0.0002849919, -0.0092088953, 0.0225101057, -0.0076980153, -0.0119769843, -0.0071584596, 0.0242649205, -0.0339674316, -0.0144474683, -0.0261316262, -0.0125347404, 0.0001366525, 0.0061104540, -0.0093732988, 0.0135520371, -0.0000874064, 0.0052963779, -0.0395734534, -0.0101157781, 0.0030327514, 0.0305835288, 0.0002044663, 0.0288691763, 0.0174906030, 0.0455715209, -0.0341948792, 0.0257795993, -0.0257458575, 0.0163437948, 0.0038446074, 0.0507226326, 0.0105248941, -0.0474213026, -0.0161762182, 0.0454864539, 0.0159787927, 0.0074166800, -0.0076990449, -0.0203016046, -0.0418072231, -0.0233784150, 0.0335448794, 0.0285257567, 0.0239779260, 0.0112164747, 0.0050611882, 0.0025523778, 0.0145985540, -0.0194053277, 0.0080679115, -0.0013637645, 0.0042189686, -0.0147665739, -0.0086554894, -0.0171502270, -0.0220782775, 0.0018965107, 0.0349967666, -0.0333996564, 0.0106934598, -0.0163370892, 0.0203894638, 0.0020201500, -0.0280322079, -0.0045981151, -0.0313021280, 0.0219056271, 0.0156359710, 0.0284341630, 0.0420727655, -0.0219857525, -0.0040786918, -0.0024461525, 0.0456941351, 0.0142937433, -0.0181119312, -0.0120889172, -0.0435318798, 0.0415749438, 0.0103080003, 0.0154951345, 0.0328013040, 0.0218558926, -0.0080922507, 0.0385044999, 0.0164200999, -0.0319126509, 0.0029311213, 0.0217852779, -0.0203559268, -0.0048454609, -0.0240335502, 0.0007770485, 0.0268793628, -0.0223044995, 0.0198879912, 0.0391366780, 0.0516800992, 0.0418756083, -0.0524800308, -0.0075333090, 0.0106092030, 0.0026476395, 0.0156233106, 0.0154991029, -0.0217151865, -0.0061579477, -0.0060499785, -0.0211308114, 0.0069136815, -0.0051958258, 0.0022868589, -0.0027410476, 0.0305262152, -0.0062670684, 0.0427371934, -0.0300689284, -0.0266094040, -0.0149539439, -0.0281219780, -0.0000272913, 0.0185955986, 0.0190976094, 0.0289177876, -0.0101160547, 0.0149811916, 0.0174410921, 0.0138201369, -0.0474636294, 0.0176140144, 0.0213488862, 0.0021792343, 0.0353712924, 0.0326401815, -0.0386544019, 0.0074634128, 0.0316135921, 0.0051824846, -0.0330004618, -0.0115354173, -0.0036463307, -0.0093944622, 0.0237800237, 0.0191064868, 0.0269816294, -0.0401741676, 0.0094707413, -0.0080205072, 0.0063242642, 0.0044210977, 0.0487068407, -0.0456611253, -0.0259906501, -0.0052902661, 0.0122200651, -0.0344210193, -0.0164965801, -0.0132059464, 0.0072245020, 0.0403154008, -0.0164360031, -0.0476190746, 0.0106202476, -0.0418142118, 0.0236790422, -0.0327818394, -0.0193646308, 0.0027988190, 0.0053969454, 0.0071991733, 0.0062789414, -0.0113441152, -0.0026174157, -0.0189828016, 0.0219528023, 0.0259583425, 0.0161919575, 0.0164563693, 0.0038289391, -0.0252918731, -0.0413924865, -0.0232802499, 0.0084439600, 0.0128196608, -0.0146544324, 0.0395474993, 0.0004132648, -0.0275631752, 0.0520603657, -0.0443739891, -0.0250953026, 0.0024584378, -0.0084198117, -0.0094242627, -0.0345490091, 0.0549064465, 0.0410299189, 0.0062368959, -0.0275436211, 0.0144795226, 0.0331281871, -0.0260660648, 0.0385482609, 0.0302985497, -0.0033834297, -0.0151453614, 0.0150274243, -0.0210178401, -0.0197357330, 0.0204731785, -0.0134478314, 0.0253982507, -0.0160689112, 0.0088261375, -0.0433331355, -0.0514677428, 0.0115149599, 0.0453646705, 0.0399245098, -0.0504813232, 0.0362186953, 0.0083276406, -0.0212625097, 0.0201030038, -0.0106713744, 0.0326487944, -0.0454553775, 0.0375583060, 0.0122484164, -0.0428492054, 0.0388344191, 0.0305222850, -0.0042255512, 0.0045879190, 0.0294826683, 0.0037252642, 0.0111948093, -0.0391023196, 0.0310194083, 0.0069052354, 0.0075817280, -0.0299941227, -0.0304901544, 0.0075556785, -0.0076601249, -0.0246488247, -0.0048685712, -0.0120535307, 0.0215636287, -0.0010726212, 0.0057566990, -0.0341053940, 0.0326692350, 0.0061091213, -0.0317804813, 0.0444980301, -0.0095829768, -0.0077065965, 0.0284606516, -0.0114877317, 0.0125815384, 0.0296014529, -0.0072657987, 0.0247488469, 0.0071237353, -0.0166987255, -0.0194027275, -0.0343257077, 0.0210440587, -0.0091884136, -0.0405820310, 0.0362662748, -0.0117307603, 0.0009707211, 0.0208774153, -0.0349410363, 0.0146346772, -0.0435903035, 0.0278219264, 0.0012254876, 0.0182027780, -0.0121924635, -0.0064291325, 0.0045441701, 0.0181620866, -0.0328724161, -0.0105492175, -0.0025767782, 0.0161391441, 0.0279881246, 0.0244589727, 0.0208228268, 0.0246620215, 0.0142792501, 0.0082832035, 0.0034877798, 0.0104704946, 0.0213563610, 0.0146389715, 0.0002737214, -0.0089182900, -0.0058972053, 0.0412572995, -0.0005579419, 0.0268135332, -0.0251102820, -0.0251765922, -0.0240885746, 0.0265808199, -0.0063711451, -0.0189617444, -0.0390110165, -0.0341511630, -0.0126179429, -0.0124576641, -0.0284175519, 0.0068252822, -0.0230457801, -0.0273981262, 0.0170553420, -0.0348804928, -0.0020055252, -0.0267542824, -0.0000615358, 0.0245655701, 0.0339923650, 0.0034880484, -0.0264987927, -0.0068514328, 0.0430183895, -0.0218392368, -0.0056479345, -0.0068035200, -0.0523030534, 0.0487144254, -0.0335911028, -0.0311357100, 0.0082118586, 0.0064013940, -0.0194658153, -0.0070485030, 0.0180113129, -0.0462185666, -0.0174819790, 0.0280184168, 0.0226453580, -0.0083982581, 0.0248753764, 0.0382740349, 0.0321357772, -0.0229095481, 0.0211293139, -0.0065522119, 0.0196886603, -0.0281622056, -0.0207427032, 0.0204055980, 0.0257547516, 0.0019257574, -0.0508888587, -0.0048821410, -0.0262568146, 0.0109188268, 0.0115374122, 0.0359956101, -0.0430155545, -0.0246193483, -0.0029221738, -0.0083191963, -0.0047174562, -0.0074693984, -0.0144171566, -0.0121213561, -0.0532920584, 0.0204164535, 0.0030716744, 0.0523173138, 0.0418871194, -0.0265623610, 0.0507835671, 0.0041924492, -0.0109688817, 0.0329037085, 0.0262504704, 0.0171325766, -0.0131164035, -0.0134693356, 0.0037979253, 0.0419467762, 0.0165540278, -0.0225706547, -0.0049618143, -0.0316810869, 0.0173549578, 0.0104321893, -0.0151491696, 0.0029927110, -0.0395097658, -0.0102687012, 0.0322102197, 0.0339666456, -0.0442798212, -0.0071201776, -0.0323644914, -0.0249963291, -0.0075956918, 0.0364569724, 0.0308179576, 0.0151409442, -0.0357503183, -0.0005268246, 0.0033664526, -0.0139687816, 0.0057664267, 0.0173354652, 0.0332951136, 0.0315414332, -0.0157306902, -0.0220961329, 0.0089601055, 0.0035551863, -0.0213520080, 0.0510932356, 0.0320431143, 0.0208911076, 0.0237251949, -0.0066902665, 0.0055123293, 0.0062295259, -0.0332577452, 0.0147606246, 0.0211258363, 0.0328944996, -0.0534633659, -0.0124251740, -0.0471430384, 0.0031537793, 0.0261880234, -0.0330797248, 0.0009879025, -0.0227795113, -0.0120255370, -0.0466780737, -0.0036269024, 0.0457907990, -0.0560165457, -0.0009069370, -0.0283582956, -0.0120306052, 0.0003856076, 0.0301499572, -0.0043708584, -0.0093958694, 0.0090108123, -0.0074859750, -0.0286502820, 0.0050002243, 0.0337243825, 0.0037292072, 0.0126949148, -0.0184693541, -0.0198940225, -0.0244143568, -0.0058264537, -0.0283709764, 0.0177398920, -0.0236026961, -0.0000337495, -0.0238002092, -0.0232298095, -0.0139539959, 0.0186549611, -0.0016619535, -0.0003605688, 0.0115714334, -0.0174023099, -0.0356645361, -0.0224401671, 0.0018595333, -0.0280834306, 0.0203109570, -0.0370668322, -0.0297775939, -0.0294350293, -0.0241813436, -0.0166030563, 0.0445582755, 0.0524183922, -0.0167392585, 0.0138884112, 0.0272487570, 0.0222088452, -0.0176934954, -0.0235375091, 0.0165719297, -0.0005442566, 0.0188749414, 0.0311100595, 0.0121026970, -0.0224126056, 0.0165048260, -0.0372329801, 0.0136336088, -0.0075465073, -0.0117099173, 0.0225896928, 0.0235963259, 0.0261763334, -0.0100643700, 0.0113708293, 0.0063952096, -0.0116773872, -0.0103278290, 0.0209855959, -0.0005701320, -0.0042115287, -0.0296541005, -0.0124701206, 0.0384238251, -0.0241103917, 0.0368248895, -0.0118705528, 0.0023433953, 0.0151385097, -0.0261010602, 0.0054675769, 0.0077390303, 0.0137057099, -0.0293855090, -0.0437764674, -0.0190546531, 0.0259944536, 0.0033562714, -0.0031001943, -0.0169477463, 0.0349256434, 0.0306870863, -0.0305779744, 0.0130368937, -0.0236600731, 0.0117236935, 0.0088554975, 0.0296395812, 0.0221938957, 0.0017178565, -0.0446665138, 0.0000146864, -0.0202587508, 0.0050078500, 0.0464707874, -0.0192260724, -0.0062879534, -0.0087403096, 0.0503087044, 0.0289741624, 0.0228908621, -0.0331268273, 0.0010624618, 0.0399588309, 0.0231247153, 0.0111992229, 0.0019989682, 0.0387746058, 0.0043067639, 0.0021968768, -0.0547545291, -0.0163854379, -0.0072000488, 0.0209164023, -0.0006372709, -0.0125109404, 0.0051874742, -0.0461767837, -0.0305250436, 0.0021975553, 0.0077947676, 0.0155616226, -0.0408392474, 0.0470583178, -0.0380633324, 0.0070454944, 0.0287816785, 0.0251214895, -0.0152778402, 0.0371062495, -0.0175203048, -0.0185858607, -0.0019150865, -0.0384241566, -0.0064027989, -0.0179673936, 0.0096559646, 0.0282297749, -0.0271683298, -0.0196146443, -0.0262814816, -0.0298529733, 0.0272089839, -0.0503191464, -0.0437926613, -0.0061949170, 0.0192277189, -0.0020992681, -0.0139093492, -0.0099192690, 0.0136653800, 0.0015448598, 0.0133051807, 0.0081790099, 0.0289075226, 0.0315622948, -0.0473832153, 0.0051510809, -0.0353861600, 0.0144184539, -0.0307355523, 0.0067737093, -0.0432501845, 0.0088761840, 0.0250103846, 0.0456214584, -0.0132307010, -0.0062428331, -0.0520568155, -0.0098152570, -0.0288340636, -0.0206738431, -0.0011518572, -0.0117563931, 0.0180337187, -0.0011558754, -0.0340658687, -0.0038266652, 0.0303126574, -0.0050079054, -0.0122410767, 0.0086740945, -0.0226276126, 0.0138870021, 0.0161705315, -0.0027041303, -0.0141445072, -0.0211417656, 0.0019052441, 0.0535729751, -0.0043142894, 0.0361391008, 0.0456967764, 0.0108829560, 0.0043408265, -0.0270163193, 0.0077847117, -0.0298407283, -0.0340676494, -0.0012654113, 0.0148206623, 0.0033423696, -0.0063532698, -0.0195208136, -0.0005804558, -0.0331536420, -0.0420375057, 0.0029563971, 0.0296398941, -0.0217867997, 0.0163410082, -0.0151082249, -0.0175475031, -0.0426394418, -0.0036553112, 0.0007145705, 0.0330348127, 0.0066685551, -0.0501785539, -0.0273635890, 0.0256497711, 0.0103463912, -0.0217789728, 0.0328518786, 0.0263555702, 0.0105856918, -0.0291295704, -0.0151585946, -0.0311052240, 0.0122337332, -0.0118694277, -0.0060626226, 0.0164013207, 0.0389924273, 0.0062434343, -0.0204064026, -0.0257008281, 0.0155819347, -0.0341937840, 0.0009623122, -0.0321427658, -0.0275278836, -0.0372727253, -0.0370095298, 0.0203040559, -0.0077959243, -0.0613079593, -0.0319836363, 0.0294232685, 0.0099043930, -0.0415524393, -0.0052423356, 0.0325089432, -0.0218792371, 0.0385694318, 0.0141108772, -0.0308805816, -0.0122387670, 0.0266255420, 0.0272905696, 0.0531438403, -0.0383897088, 0.0293427892, 0.0161709730, -0.0325435102, 0.0139253698, 0.0256707594, -0.0176218636, 0.0375550985, -0.0303327069, -0.0173900519, -0.0486913249, -0.0068812645, 0.0320254304, 0.0080188094, -0.0054487530, 0.0000888348, -0.0269470792, -0.0091191893, 0.0201863777, -0.0276444424, -0.0179525148, -0.0109086111, 0.0250102747, 0.0250546150, -0.0239691921, -0.0363189802, -0.0017211816, -0.0110916737, 0.0435546003, 0.0152680585, -0.0174148884, 0.0342943557, -0.0337658860, -0.0067192749, 0.0188183710, 0.0215565842, -0.0246416535, 0.0300127883, 0.0215518791, -0.0028517256, -0.0373579562, -0.0125580039, -0.0240362938, 0.0630279556, -0.0593344718, -0.0386564322, -0.0187944863, 0.0469916910, 0.0126586836, 0.0100339511, 0.0069845514, 0.0243520383, 0.0389316380, 0.0255378895, -0.0140534826, -0.0580074266, 0.0379010178, 0.0167013053, 0.0282744206, -0.0011158137, -0.0065524727, -0.0118127326, -0.0688124597, 0.0068476195, -0.0123832254, -0.0179117192, -0.0237326324, 0.0161969326, -0.0299370755, 0.0367965288, -0.0190254413, -0.0088367220, -0.0142710013, -0.0580662191, 0.0058913082, 0.0265942402, 0.0425388068, 0.0196788050, -0.0130359298, -0.0115579246, -0.0435448475, 0.0109638562, 0.0081196399, -0.0095635056, -0.0397044495, -0.0099491440, -0.0143909566, -0.0095247850, -0.0086239791, 0.0030702592, -0.0217620544, 0.0109595545, -0.0240656920, -0.0073275855, -0.0251118839, -0.0064381817, -0.0388663523, 0.0154840387, 0.0303279627, 0.0363958329, 0.0163195953, -0.0039233039, -0.0005342345, -0.0306255557, -0.0127217956, -0.0238492750, 0.0229750462, -0.0217128918, 0.0305270404, -0.0333170928, -0.0055973697, -0.0165392011, -0.0643587410, -0.0522525348, -0.0302536283, 0.0614563301, -0.0087882737, -0.0087600769, 0.0620534681, -0.0090843635, 0.0235778429, -0.0234633889, 0.0273338221, -0.0236098375, -0.0031772803, -0.0218593813, -0.0336387791, 0.0370627753, -0.0555311739, -0.0158552714, 0.0106599834, -0.0496288314, -0.0059488420, -0.0284736715, 0.0187600218, -0.0189097188, 0.0002769406, 0.0124216853, 0.0058873631, -0.0189436357, 0.0443611480, 0.0338769034, -0.0108515806, 0.0190238375, -0.0048724697, 0.0009687110, 0.0139155183, 0.0062451973, -0.0397322960, -0.0198639948, 0.0057120575, 0.0186337028, 0.0007172226, -0.0326656252, -0.0130782733, -0.0331629999, -0.0585504100, -0.0345947891, -0.0141355256, 0.0166567136, 0.0606117696, -0.0033759233, -0.0297024660, -0.0313163809, 0.0336529016, -0.0612870753, 0.0021231684, 0.0402566753, 0.0633954704, 0.0020221313, -0.0014209772, -0.0209932663, -0.0000973519, 0.0156068318, 0.0441372953, 0.0255184770, -0.0158974789, -0.0026240419, 0.0130582480, -0.0499055646, 0.0392914377, -0.0242772512, -0.0124388207, -0.0563725345, 0.0952006206, 0.0031574096, 0.0155310445, 0.0257904306, -0.0507159047, 0.0538637489, -0.0314394496, -0.0079754386, -0.0488586612, -0.0205166303, 0.0222337134, 0.0108661680, 0.0162886400, 0.0291092936, 0.0325301886, -0.0163413975, -0.0015588576, -0.0084041478, 0.0096277753, 0.0336373411, -0.0548224486, -0.0175171047, -0.0177595858, -0.0114491126, -0.0098201232, -0.0348841771, 0.0429631583, -0.0120386221, -0.0617340617, 0.0097584110, -0.0536230579, -0.0380758978, -0.0137717444, -0.0261763781, 0.0369207673, -0.0099818530, 0.0018775266, 0.0056088427, 0.0593123436, 0.0201225486, 0.0101909488, -0.0121073322, 0.0273810662, 0.0074772155, 0.0640170574, -0.0612942539, 0.0299850758, -0.0506371632, 0.0291067380, 0.0123510715, 0.0124472538, -0.0525406227, -0.0511031598, -0.0089395372, -0.0108136171, 0.0348860770, 0.0544328094, -0.0658059418, 0.0351687521, 0.0304946396, 0.0405141227, -0.0313813426, 0.0793566704, 0.0294129625, 0.0348817930, 0.0164038111, 0.0677944124, -0.0707327276, 0.0169541705, -0.0478559472, 0.0051953932, 0.0915335193, -0.0271315500, 0.0323486589, 0.0141841453, -0.0404342823, -0.0493105724, 0.0743972883, 0.0889291242, -0.0047246199, -0.0385778397, 0.0538703799, 0.0466546603, 0.0207799729, 0.0121557517, 0.0091047036, 0.0267939437, 0.0320111588, 0.0489727370, 0.0233507343, 0.0659133717, -0.0749507621, 0.0355837718, 0.0513720140, -0.0265232474, -0.0181697533, -0.0752726868, -0.0166430064, 0.0944924280, 0.0140020419, 0.1151706725, -0.0008271480, -0.0511194728, 0.0579326190, -0.0715054497, 0.0290723555, 0.0132935774, -0.0191181302, 0.0561621040, -0.0052816044, 0.0104176607, 0.0359958597, -0.0366760045, -0.0095186504, 0.0135455988, 0.0215118807, 0.0237482507, -0.0198927168, -0.0505886115, -0.0161222201, 0.0156518482, 0.0209036488, -0.0183969829, 0.0433956981, 0.0767974406, 0.0093506044, 0.0259550251, -0.0941258818, 0.0245682131, -0.0146125080, 0.0002603496, 0.0378619470, 0.0729761198, -0.0128160119, -0.0683691725, -0.0173442885, 0.0085221035, -0.0127740772, -0.0160279311, 0.0020357678, -0.1124761850, -0.0007606839, -0.0026268868, -0.0578191280, 0.0341079719, -0.0624317937, 0.0131229647, 0.0563621111, 0.0608220361, 0.0325845294, -0.0850804821, -0.0675045624, -0.0271368083, 0.0906991437, 0.0491570458, -0.0067972662, -0.0440256856, -0.0660667643, 0.0308332928, 0.0063530635, 0.0375771560, 0.0289225243, -0.0588929243, 0.0383655839, -0.0036547985, -0.0256100036, -0.0663960129, -0.0085454052, -0.0583564453, 0.0526217408, -0.0118832299, 0.0652609617, 0.0517875962, -0.0334227048, 0.0546659641, -0.0321713574, -0.0616326407, -0.0662713423, -0.0519272089, -0.0132467626, 0.0467045866, -0.0003814278, 0.0310991909, -0.0579262450, -0.0410865173, -0.0362910815, 0.0287248734, 0.0466792062, 0.0220791157, -0.0703443140, 0.0151471095, -0.0534441844, -0.0277837571, -0.0434597358, 0.0341987871, -0.0521807149, -0.0532620586, -0.0166627876, 0.0038468463, 0.0218448602, -0.0490326360, -0.0162551533, 0.0022206467, -0.0530026332, 0.0637681782, 0.0287899952, 0.0601138175, -0.0193969682, -0.0418584049, 0.0526073091, -0.0085210009, -0.0285264887, -0.0038416493, 0.0230077673, -0.0295509249, -0.0163924657, 0.0666934103, 0.0585619994, -0.0581772998, -0.0249518454, -0.0464011095, 0.0906650946, -0.0230162032, 0.0193726085, 0.0106998337, 0.0139337592, 0.0167467929, -0.0053761159, -0.0650320947, -0.0244855266, -0.0348079763, 0.0151273562, 0.0431800410, -0.0216495134, -0.0369128548, -0.0679940730, 0.0440807454, 0.0074321665, -0.0547719710, 0.0206138883, 0.0416051783, -0.0111639593, 0.0256781299, -0.0268197302, 0.0333163664, -0.0158910267, 0.1110988036, -0.0227654427, 0.0215241816, 0.0720027685, 0.0066524851, -0.1177003756, 0.0652509406, -0.0523552932, -0.0212441403, -0.0567440763, 0.0967051163, 0.0163760874, 0.0332059041, 0.0527056083, -0.0368722975, 0.1006398872, -0.0910013840, -0.0505851917, -0.0115410686, 0.0346314758, 0.0535559654, 0.0400267877, -0.0419653207, 0.0409466624, -0.0060527781, -0.0159820858, 0.0231885891, -0.0993969366, 0.0204637386, 0.0218046717, -0.0783125982, -0.0645553693, -0.0046645128, -0.0962053388, 0.0242317189, 0.0408268906, 0.0555637516, -0.0172349531, -0.0415649042, 0.0515132882, -0.0007032463, -0.0435117483, -0.0516212322, -0.0736216307, 0.0455340706, 0.0793452263, -0.0175575297, 0.0328593366, -0.0333911553, -0.0780180916, -0.0113883428, 0.0015585022, 0.0698795617, 0.0173070692, 0.0134863071, -0.0463982448, -0.0314936861, -0.0690196231, 0.0115846265, 0.0029034615, 0.0035568138, -0.0041416027, -0.0621932782, 0.0089273257, -0.0313818753, -0.0215896815, -0.0093745710, -0.0173297301, 0.0286675431, 0.1054606065, 0.0530524105, 0.0674725547, 0.0951980650, 0.0129343858, 0.0259197019, 0.0535897128, 0.0789611340, -0.0518723764, -0.0217843149, -0.0391449146, -0.0276497863, 0.0584098324, 0.0168421566, -0.0121141979, 0.0466575325, 0.0141132027, -0.0590714552, -0.0394964330, 0.0794037804, -0.0172355939, -0.0248326194, 0.1071761772, -0.0301520675, -0.0097566629, 0.0961525217, 0.0164404362, 0.0601064190, -0.0275115483, 0.0485840105, 0.0277491882, 0.0394008607, -0.0173055902, -0.0314180814, 0.0557014197, 0.0048741996, -0.0298695080, -0.0657134876, 0.0717612654, 0.1103601530, 0.0623262674, 0.0902418569, 0.0026018266, -0.0339669883, 0.0387272090, -0.0673577115, 0.0982640907, 0.0245415661, 0.0430385098, 0.0007526707, -0.0134564657, -0.0064669629, 0.0940193608, 0.0053030881, -0.0460605957, 0.0209001731, -0.0131960772, -0.0049544848, -0.0475317240, 0.0289252549, -0.0037807007, 0.0529844575, 0.0389275774, -0.0277452283, 0.0674881414, 0.0847490057, 0.0318031684, 0.0362237543, -0.0547141545, 0.0259453896, 0.0139239877, -0.0006090911, -0.0076145679, 0.0553198457, 0.0162167437, -0.0500587188, -0.0150924698, 0.0165678784, 0.0497697815, -0.0211019590, 0.0680761337, -0.0505528599, -0.0022956855, 0.0391246192, -0.0383532196, -0.0040298342, -0.0279655345, -0.0530744419, 0.0226261113, 0.0652134493, 0.0496633165, 0.0042226352, -0.0490424559, -0.0256354250, 0.0375646278, 0.0209236294, -0.0181520414, -0.0114272926, 0.0078938091, 0.0577980429, 0.0222413037, 0.0441223308, 0.0568587519, -0.0050555766, -0.0065730182, 0.0256382804, 0.0305296853, -0.0650247782, 0.0005892662, -0.0670688152, 0.0188245773, 0.0020008897, 0.1454300880, 0.0548048280, 0.0042259390, 0.0551734157, -0.0790635943, -0.0616507456, -0.0077264179, -0.0942740738, -0.0326655544, 0.0152776791, -0.0829932168, 0.0557027049, -0.0767215341, -0.0053032921, -0.0488622300, 0.0100961560, 0.0376001671, 0.0152825201, -0.0398881994, -0.0264138319, -0.0241796542, 0.0000653700, -0.0458817780, -0.0096712057, -0.0726991743, -0.0522936322, -0.0382409506, 0.0712697059, 0.1039999872, -0.0708080754, -0.0506009348, 0.0130806966, 0.0062519577, 0.0644738004, 0.0857269913, -0.0021276518, -0.0349780433, 0.0064058788, 0.0321547054, -0.0640423968, 0.0282484274, 0.0527730025, 0.0706082582, 0.0437397659, -0.0522524603, 0.0862942860, 0.0239060204, 0.0240461882, 0.0278973114, -0.0302865226, 0.0963779837, 0.0173566546, 0.0165618211, -0.0238007363, 0.0110862227, 0.0188618265, -0.0185044762, -0.0016892065, -0.0143660903, -0.1022020876, -0.0279044937, 0.0143173253, -0.0634592324, 0.0259808153, 0.0254862905, 0.0101100756, 0.0654666945, -0.0506827123, -0.0119348811, -0.0103468914, -0.0425898805, 0.0384815149, 0.0230783932, 0.0216730051, -0.0151616391, 0.1089832261, -0.0280800238, 0.0820827559, 0.0641067773, 0.0462305285, -0.0848043561, -0.0717620328, -0.0000729326, 0.0039307228, -0.0363546014, -0.0031920883, -0.0223938357, -0.0332143456, 0.0278192330, -0.0146534806, 0.0336096212, -0.0339709409, 0.0043761772, -0.0532256588, -0.0004049983, 0.0604306832, 0.0441270657, -0.0202710256, -0.0465460904, -0.0163742360, -0.0452768728, 0.0767295808, -0.0692107081, -0.0479582362, -0.0278361905, -0.0207253899, -0.0744233057, -0.0483468249, -0.0732003450, -0.0433029197, 0.0047329958, 0.0849682316, 0.0173339099, 0.0041357051, 0.0564586557, -0.0052021514, 0.0428627878, -0.0393354893, -0.0256031584, 0.0401537679, 0.0760945082, -0.0503538400, 0.0234335773, -0.0710540712, -0.0479263775, 0.0011759636, -0.0043061366, 0.0253273305, -0.0169698112, -0.0165918488, -0.0022868179, -0.0400532931, -0.0352953710, 0.0441140011, -0.0438299477, -0.0151601797, 0.0420863070, 0.0496338382, 0.0227597505, -0.0008493792, 0.0223378241, -0.0148804486, 0.0363895036, 0.0156691149, 0.0456316173, -0.0187057592, 0.0545839891, -0.0483020954, -0.0134341652, -0.0194076374, 0.0055346466, -0.0347794741, 0.0203273427, 0.0081268959, 0.0165959988, 0.0231032912, 0.0470678806, -0.0428762659, -0.0412676670, 0.0422395132, 0.0241212994, -0.0100820241, -0.1289182305, 0.0097031612, -0.0093606263, 0.0309230201, -0.0184490886, -0.1190601960, 0.0265452527, 0.0009611558, 0.0490229726, 0.0500961915, 0.0160963945, 0.0272522829, -0.0177000407, -0.0010536980, 0.0140264463, 0.0227296259, -0.0112123508, 0.0251117162, -0.0224890597, 0.0212024245, -0.0132585615, 0.0594201721, 0.0277947690, -0.0509734340, -0.0411166586, 0.0129743395, -0.0160879362, 0.0417088196, 0.0499292649, -0.0103380876, 0.0465592220, -0.0172706246, -0.0087996256, 0.0418413542, -0.0666534007, 0.0694548935, -0.0077861208, -0.0478693768, 0.0079874741, -0.0364618897, 0.0657132566, 0.0646036193, -0.0039864825, 0.0291117299, 0.0285148602, 0.0072069615, -0.0033865003, 0.0077920514, -0.0062517771, 0.0121273836, 0.0155053241, -0.0313325077, 0.0106259994, -0.0166988075, -0.0920249522, 0.0453509241, -0.0006136934, 0.0621694922, 0.0194950271, 0.0288010910, -0.0167595502, 0.0169128198, -0.0207425449, -0.0073419847, -0.0144120632, 0.0177770667, 0.1163488552, 0.0580356047, 0.0026132476, -0.0087854359, 0.0385041572, 0.0482784696, 0.0140986964, 0.1075698212, -0.0251583830, 0.0179079566, 0.0064963014, 0.0010294453, -0.0198464245, -0.0089766495, -0.0086648874, 0.0081183072, -0.0310591869, 0.0098157255, 0.0274466313, 0.0223436337, 0.0001620012, -0.0086600902, 0.0508033521, 0.0462127924, 0.0246598981, 0.0933273137, -0.0393862836, 0.0281664748, 0.0215888601, 0.0112609686, -0.0086392742, 0.0279833432, 0.0051940409, 0.0013865549, -0.0057571582, -0.0589482076, 0.0632506236, 0.0554947406, 0.0475371480, 0.0242980998, 0.0069200182, -0.0473790392, -0.0457396768, -0.0242854077, -0.0553665906, -0.0071528652, 0.0230676439, -0.0220355894, -0.0316162929, 0.0229156651, -0.0092605567, -0.0564122982, 0.0308510996, -0.0219038203, 0.0982823521, -0.0229842868, 0.0468199290, -0.0540143624, 0.0373392850, -0.0216326565, 0.0677677616, 0.0148278279, 0.0348683372, -0.0498830788, 0.0387217104, 0.0023038471, 0.0303889215, 0.0084922872, 0.0265924521, 0.0631138906, 0.0190333724, -0.0334236696, 0.0323383063, 0.0011203381, -0.0228767283, 0.0742615759, -0.0044516302, -0.0228087381, 0.0237774756, 0.0155772949, -0.0555205122, -0.0158185642, 0.0190596767, 0.0498109795, 0.0069584842, 0.0512217730, 0.0501436964, -0.0035274292, -0.0392069444, 0.0531491302, 0.0510158129, -0.0136875473, 0.0945541263, 0.0057425713, -0.0148131419, 0.0571442768, 0.0281800181, -0.0757731944, -0.0662700012, 0.0242265854, 0.0184120703, 0.0354037955, 0.0065632109, 0.0408391729, -0.0084121032, 0.0401261672, -0.0234107748, -0.0317832641, -0.0088497866, -0.0288134143, 0.0129688978, 0.0069092065, -0.0102139441, 0.0430737734, 0.0220031124, 0.0238769948, -0.0403182395, -0.0194105152, -0.0983068720, 0.0129676228, 0.0631967857, -0.0496176854, -0.0297754016, 0.0333676413, 0.0196403284, -0.0424936078, -0.0288704000, 0.0379057415, -0.0369852670, -0.0037061318, -0.0170463230, 0.0328118503, -0.0103879832, 0.0438080691, 0.0141226342, -0.0122340443, 0.0583499186, 0.0375616588, 0.0526109636, 0.0159757603, 0.0038148612, 0.0507012457, -0.0161447618, -0.0201519951, 0.0495013259, -0.0263519064, 0.0483980440, -0.0116624860, -0.0211090781, 0.0423152559, 0.0146424435, 0.0263601616, -0.0013568626, -0.0046154251, 0.0374671444, -0.0260751266, 0.0140595566, -0.0182104185, 0.0191576909, -0.0197075941, 0.0502594970, 0.0058367550, 0.0479477383, -0.0178585127, 0.0602908432, 0.0230912361, -0.0462569483, 0.0624190606, 0.0465474203, -0.0270376895, 0.0856043249, -0.0186063070, 0.0554108620, -0.0159316193, -0.0397982337, -0.0353024900, 0.0965667590, 0.0514572710, -0.1152838767, -0.0795499235, 0.0631305128, 0.0170371663, 0.0060887826, 0.0123483883, 0.0000234160, 0.0049921898, -0.1098603159, -0.0440612920, -0.0063779145, 0.0032076249, -0.1292128861, 0.0204221923, 0.0114625273, 0.0417614840, -0.0601246729, -0.1264079213, -0.0179905407, -0.0118030664, 0.0512904413, 0.0114260754, 0.0143000986, 0.0804225802, -0.0402936265, -0.0221102256, -0.0014119246, 0.0190489832, -0.0347104482, 0.0472255088, 0.0202092398, 0.0212903563, -0.0179868471, 0.0858815163, 0.0023524251, -0.0894194171, -0.0110396268, 0.0481834225, 0.1283681393, -0.0121522415, 0.0576664843, 0.1163773686, 0.0018428130, 0.0107615646, 0.0471224673, -0.0047198408, -0.0566210449, -0.0371131450, 0.0719672740, -0.1182389185, -0.0775450990, 0.0175061040, 0.0401221700, 0.0451029316, -0.0115500698, 0.0219523534, -0.0359985083, 0.0721199289, 0.0268171392, -0.0563781634, 0.0119558787, 0.0717789084, -0.0204850994, -0.0150285931, -0.0207560658, -0.0981201082, -0.0746109560, 0.0498728715, 0.0228765607, 0.0802895501, -0.0282158665, 0.0582704805, 0.0246728547, 0.0790060163, 0.0337669998, 0.0458024107, -0.0752531067, 0.0367930382, 0.0508034118, -0.0528968833, 0.0475023203, 0.0270049423, 0.0096772434, 0.0032684009, -0.0493911169, 0.0866018683, 0.0401068144, 0.0444131568, -0.0587463975, 0.0219700746, -0.0357786827, -0.0201565437, -0.0448565595, -0.0708397403, 0.0048034457, -0.0246303175, -0.0102663534, -0.0470306613, 0.0142361578, 0.0106219770, 0.0642900392, 0.0540286005, -0.0093280384, 0.0781640336, 0.0627256557, 0.0768200159, 0.0547022521, -0.0047099008, 0.0038610601, 0.0258113723, -0.0086340681, -0.0009760931, 0.0409142524, 0.0280609410, 0.0170438718, 0.0713614151, 0.0031848995, 0.0480477512, -0.0187808182, 0.0799951404, -0.0003289652, 0.0656690896, -0.0476595983, 0.0332888030, 0.0486905575, -0.0494759940, 0.0105225295, 0.0766436383, -0.0119135035, -0.0158965215, 0.0215288438, 0.0796102583, 0.0099177975, 0.0621012263, 0.0543855801, 0.0141502824, 0.0198302977, -0.0124193104, 0.0202199239, 0.0006949277, -0.0590139963, -0.0693660900, 0.0537971407, -0.0429771878, 0.0796025842, -0.0266407169, 0.0956699401, 0.0102009233, 0.0346939825, 0.0049664089, -0.0538797379, 0.0472057983, -0.0446935035, -0.0375946090, -0.0204317085, 0.0213648584, 0.0646493062, -0.0154991755, -0.0433593541, 0.0365593471, -0.0002347097, 0.0116252350, 0.0368333384, 0.0833971426, 0.0110304719, 0.0326622203, -0.1317428797, 0.0349099450, -0.0045431680, 0.0196479037, -0.0542120263, -0.0365627930, 0.0689217299, 0.0205824636, -0.0099331271, -0.1483862549, 0.0025111106, 0.0106883235, -0.0621090680, 0.0378865488, 0.0156823508, 0.0577470437, 0.0711513609, -0.0637530610, -0.0301562585, -0.0457561202, -0.0111118695, -0.0574311391, 0.0782402083, -0.0195015036, 0.0816381574, -0.0620524362, 0.0073822225, -0.0236073751, 0.0570206158, 0.0547293276, -0.1212585121, 0.0827061906, 0.1150716469, 0.0457980819, -0.0101735098, 0.0844635218, -0.0415875502, -0.0102869319, -0.0574173108, 0.0373906232, -0.0258255862, -0.0871506333, 0.0805037543, -0.0891320631, -0.0602612533, 0.0409758203, -0.0145337377, 0.0322199650, 0.0039163125, 0.0056155697, -0.0734232441, -0.0183599610, 0.0647218525, 0.0344129279, -0.0170438346, -0.0136064049, 0.0051306221, 0.0186214354, 0.0435828380, 0.0715968981, -0.0705589876, 0.0475866236, 0.0171860773, -0.0175898969, 0.0559184775, 0.0138043072, 0.0351398848, -0.0724036992, -0.0175200440, -0.0497040153, 0.0435030833, -0.0186712742, 0.0383548886, 0.0040871641, 0.0846109092, -0.0090153636, 0.0126019074, 0.0132007217, -0.0868308246, 0.0423847660, 0.0338949300, -0.0098345159, 0.0216562282, -0.0321605168, 0.0109193586, -0.0053234464, -0.0713320896, -0.0022773847, 0.0601756275, 0.0123122344, -0.1045901030, -0.1176133305, 0.0843215361, -0.0271809604, 0.0116765061, 0.0214941129, -0.0060121487, 0.0188616645, -0.1101517230, -0.0456934310, -0.0276249871, -0.0330860615, -0.1114492267, 0.0275216494, -0.0119246617, -0.0276346281, -0.0784195811, -0.1256338209, -0.0263880342, 0.0077472576, 0.0213867165, -0.0289171413, -0.0020670013, 0.0717896968, -0.0350468643, -0.0668707862, -0.0405989327, -0.0257555507, -0.0208138376, 0.0897712111, 0.0115240570, -0.0060914904, -0.0468354858, 0.0653110966, 0.0000902144, -0.1457723826, 0.0143850353, 0.0855768025, 0.1328576505, -0.0459536277, 0.0076250983, 0.1122744903, -0.0427452736, -0.0392278507, 0.0317308828, -0.0034566366, -0.1106142923, -0.0285475403, 0.0426699333, -0.0902180448, -0.0956614316, -0.0378004462, 0.0885687768, 0.0663587302, -0.0299206041, 0.0285636596, -0.0675198808, 0.0183957946, -0.0185202137, -0.0137528135, 0.0325223990, 0.0656111538, -0.0359235518, 0.0005255555, -0.0199414231, -0.0958141163, -0.0767652094, 0.0926454440, 0.0481873043, 0.1006264389, -0.0038718355, 0.0909596831, -0.0259932280, 0.0848498642, -0.0314822644, 0.0718804225, -0.1067434400, 0.0236331467, 0.0711349547, -0.0808767527, 0.1227057725, 0.0035624765, -0.0057704928, 0.0195360407, -0.0504526906, 0.0791580752, 0.0305857770, 0.0605382882, -0.1219942868, -0.0334402025, -0.0093287909, 0.0169002991, -0.0769971535, -0.0841040835, -0.0033682333, 0.0086094271, 0.0370057598, -0.0155697893, 0.0026255855, 0.0231915936, 0.0897204131, 0.0651715100, 0.0149067985, 0.0544346683, 0.0473044701, 0.0505491011, 0.0495316274, -0.0805237442, -0.0085861664, 0.0180181582, -0.0118131218, 0.0482766703, 0.0453406312, 0.0343821235, 0.0168763045, -0.0130792223, 0.0107403090, 0.0377223529, -0.0060141883, 0.0942791551, 0.0636484101, -0.0034079296, -0.1056839898, -0.0011932516, 0.0693930164, -0.0320089199, 0.0508670136, 0.0582165346, -0.0636575222, -0.0561058149, 0.0657559931, 0.0764195248, 0.0004360847, 0.0382729582, 0.0098174568, 0.0447199270, 0.0501214564, 0.0101286909, -0.0238645431, 0.0110778958, -0.0533566251, -0.0752647221, 0.0878765583, -0.0483628698, 0.1003364325, 0.0253630243, 0.0891207829, -0.0236720461, 0.0612330772, -0.0095365690, -0.0459882878, 0.0763693452, -0.0688893795, -0.0572665296, 0.0575736426, 0.0187548492, -0.0008741028, -0.0336861648, -0.0172363780, 0.0079264399, -0.0295043457, 0.0132391546, 0.0494591109, 0.0899564102, -0.0537623353, 0.0457835719, -0.1094285920, 0.0421906225, 0.0081843697, 0.0188937839, -0.0548550375, -0.0794771761, 0.0507610701, -0.0340006612, -0.0316391215, -0.1338047981, -0.0415257178, 0.0305122063, -0.0315060541, 0.0087845521, -0.0456876531, 0.0424740873, 0.1066512987, -0.0266573168, -0.0240670443, -0.0767390877, 0.0761037096, -0.0718547329, 0.0716100261, -0.0128489351, 0.0978676975, -0.0713907629, 0.0049996260, -0.0493795834, 0.0498461686, 0.0411075577, -0.0693048388, 0.0907346979, 0.0844870508, 0.0614434443, -0.0114406021, 0.1138954461, -0.0248832237, -0.0242483150, -0.0794409588, 0.0423458442, 0.0096005229, -0.0521969721, 0.0879893377, -0.0873963386, -0.0479998477, 0.0460880734, -0.0826605558, 0.0408442877, 0.0471202582, 0.0132779917, -0.0779761523, -0.0074853539, -0.0054422459, 0.0059213978, -0.0109018832, -0.0449286625, -0.0477620810, 0.0851584673, 0.0282440633, 0.0287423227, -0.0427039452, 0.0376150683, 0.0232530423, -0.0359321274, 0.1026593447, 0.0832685605, 0.0265758485, 0.0087079937, 0.0258889478, -0.0523069389, -0.0010423920, -0.0360243022, 0.0474485755, -0.0186005570, 0.0177787691, 0.0235601030, 0.0419874862, 0.0318640694, -0.0201425888, 0.0363255478, -0.0065216543, -0.0336201414, 0.0491014533, -0.0095838560, 0.0267657191, -0.0193315912, -0.0015543402, -0.0125464927, 0.0211867113, 0.0071745901, -0.0708312690, -0.0273053031, 0.0210408028, -0.0329797566, 0.0612124316, -0.0072303792, 0.0195144024, -0.0137318922, -0.0689775720, -0.0109452633, 0.0130404606, 0.0193968471, -0.0891433284, 0.0203846805, -0.0029784122, 0.0206919406, 0.0068739601, -0.1635757089, -0.0113496566, 0.0222972482, 0.0472814851, 0.0003900999, 0.0564454272, 0.0134437624, -0.0470617488, -0.0332844816, 0.0403205119, 0.0219260436, 0.0033970699, 0.0512459688, -0.0143093914, -0.0049803108, -0.0167343859, 0.0163118355, -0.0009263232, -0.0480842963, -0.0022140103, 0.0630701780, 0.0252593737, 0.0129093537, 0.0472136848, 0.0576195903, 0.0148926815, -0.0110132704, -0.0045979992, 0.0024200690, -0.0561944731, 0.0353176780, 0.0779672563, -0.0668988079, -0.0485337861, -0.0012660028, 0.0684041232, 0.0252662618, -0.0372399502, 0.0232724883, 0.0268079080, 0.0390380882, -0.0148808723, -0.0419260263, -0.0206271391, 0.0217566378, 0.0428392813, -0.0140414042, 0.0332247689, -0.0764106065, -0.0994033962, 0.0352013372, -0.0241278484, 0.0868160501, -0.0164588746, 0.0621508062, -0.0397096984, 0.0198730920, 0.0272825733, 0.0442110300, -0.0401748158, 0.0019499073, 0.1032168418, -0.0452815704, 0.0578351244, 0.0163131524, -0.0174337998, 0.0458185598, -0.0282169338, 0.1042909622, -0.0010214539, -0.0019699987, -0.0550649911, 0.0112230927, -0.0219819434, 0.0160939824, 0.0048812125, -0.0033778783, 0.0238655768, -0.0022535138, 0.0265217945, 0.0220854394, -0.0078702047, -0.0429825932, 0.0421942584, 0.0550681725, 0.0224362630, 0.1087007672, 0.0232152715, -0.0158419870, 0.0552431084, -0.0441265553, 0.0420017727, 0.0026239522, 0.0459018648, 0.0472362079, 0.0511021577, 0.0244410094, 0.0854672045, 0.0245251525, 0.0867620707, 0.0300354809, 0.0264384486, 0.0532525145, -0.0117209330, 0.0094221924, -0.1035648808, -0.0029487810, 0.0479780771, -0.0252119191, 0.0432417206, 0.0274301879, -0.0124691175, -0.0352457315, 0.0827673003, 0.0440818295, 0.1173515469, 0.0029210243, 0.0424189977, 0.0275112186, 0.0289277062, -0.0384375416, 0.0701239407, -0.0420540050, -0.0385378748, -0.0539060235, 0.1035117209, 0.0262168292, 0.0485158786, 0.0339978971, 0.0557700954, 0.0283679459, 0.0020336469, -0.0032513358, 0.0001813336, 0.0164922141, 0.0102370176, 0.0279374383, 0.0079519581, 0.0073893783, 0.0461568423, 0.0002136610, -0.0875104740, 0.0129998457, 0.0527361110, 0.0412221886, 0.0598505475, 0.0304425098, 0.0302176494, 0.0420655124, -0.1126020923, 0.0103044342, 0.0366679057, 0.0284446348, 0.0235741548, -0.0375015624, -0.0080538793, 0.0683238283, 0.0066006035, -0.1215755418, -0.0424570851, -0.0318587534, -0.0802073553, 0.0107408026, -0.0363893919, 0.0135888131, 0.0692063496, 0.0291800108, 0.0018872456, 0.0115285879, 0.0618136190, -0.0266419686, 0.0221849456, -0.0152350692, 0.0485836044, -0.0062665688, -0.0109471232, -0.0245004632, -0.0003839277, -0.0022578612, -0.1094277799, 0.0647308081, 0.0890337676, 0.0162394959, -0.0397632830, 0.0234649461, -0.0375797860, -0.0547899008, -0.0424028188, 0.0890406892, 0.0346508063, -0.0198626388, 0.0740545318, -0.0419587195, 0.0014152278, 0.0896809995, 0.0187813248, -0.0076344726, 0.0985881239, 0.0438650921, -0.0344832391, -0.0441686846, 0.0173595417, 0.0310330670, -0.0216481127, -0.0570928603, -0.0250858888, 0.0005806375, 0.0545903854, 0.0638575703, -0.0641164556, 0.0624509715, 0.0060461271, -0.0446034707, 0.0450696945, 0.0661679059, -0.0459247790, 0.0805594474, 0.0138562052, 0.0131071247, 0.0060983878, -0.0537316687, -0.0465294570, 0.0353874639, -0.0004424981, 0.0240139160, -0.0163433217, 0.0151953502, -0.0015258894, -0.0168849453, 0.0237177126, 0.0323936753, 0.0113651240, 0.0390494913, 0.1136431247, 0.0396789163, 0.0735267624, 0.0689900592, 0.0583011210, 0.0282327961, 0.0689194277, 0.0298157707, -0.0478708297, -0.0283669010, -0.0310977455, 0.0359252989, 0.0175818969, -0.0042592632, -0.0409343243, 0.0016998468, -0.0215264671, -0.0087039573, -0.0661897659, 0.0685674995, 0.0322289616, -0.0068382160, 0.0653505325, -0.0625875667, 0.0210474934, 0.0500238724, 0.0293063931, 0.0493896082, 0.0292045623, 0.0292369705, -0.0087021319, -0.0020010392, 0.0189897623, 0.0305629317, 0.1223759949, -0.0096486146, -0.0013491838, 0.0073255217, 0.0555212311, 0.0793607235, 0.0272746533, -0.0041326154, -0.0470114276, -0.0225974824, 0.0520530306, -0.0085951230, 0.0942273587, 0.0228317045, 0.0000547557, 0.0045190039, -0.0239191689, 0.0270995405, 0.0221929383, 0.0046567670, -0.0004222622, 0.0213660467, 0.0066794613, 0.0411033183, 0.0235127509, 0.0174896624, -0.0079657882, -0.0103304274, 0.0491196439, -0.0333712697, 0.0793321952, 0.0152075319, -0.0044354936, -0.0011141239, -0.0364345312, -0.0530129261, -0.0027872797, -0.0260191299, -0.0146005284, 0.0594547130, 0.0171335973, -0.0100874398, 0.0129678063, 0.0379904062, -0.0102380877, -0.0009749839, 0.0267764963, -0.0530072600, 0.0213332046, -0.0056949551, 0.0095606800, -0.0225831736, 0.0094932122, -0.0507852808, 0.0213832594, 0.0196995642, -0.0081056235, 0.0060238615, -0.0006317669, 0.0233387053, 0.0298479963, 0.0033276770, 0.0032910891, -0.0241568238, 0.0013511505, 0.0668940172, 0.0325547159, -0.0343753509, 0.0121122897, -0.0330865793, 0.0362012349, -0.0011282087, 0.0205731858, -0.0147816706, 0.0061116526, 0.0089027425, 0.0410239957, -0.0356281064, 0.1313396990, 0.0134767126, 0.0174935367, 0.0091488464, -0.1036092490, -0.0076512843, -0.0585678779, -0.0806245580, -0.0281652622, 0.0442110747, -0.0107266242, 0.0621576533, -0.0678612366, 0.0026620240, -0.0051061828, -0.0659294948, 0.0080092708, 0.0317986608, 0.0374504663, -0.0102206171, 0.0065769264, 0.0198312216, 0.0172653459, -0.0807192773, 0.0121109504, -0.0220427308, 0.0546707772, 0.0695448816, 0.1039185748, -0.0647432357, -0.0315924361, -0.0438368693, -0.0080861878, 0.0006139828, 0.0757827312, 0.0096665649, 0.0347228497, 0.0120912865, 0.0363616534, -0.0408952758, 0.0099658687, 0.0295031816, 0.0748307183, 0.0603020713, -0.0690953806, 0.0413481146, 0.0027221455, -0.0021937676, -0.0180399884, -0.0242393110, 0.1177041829, -0.0377708375, -0.0014406084, -0.0299873129, 0.0499777161, 0.0692625418, -0.0131015312, 0.0188016593, -0.0044463202, -0.0616847351, -0.0273188595, -0.0165537037, 0.0245935190, 0.0132454196, 0.0424243994, 0.0481504239, 0.0429919921, 0.0210642759, 0.0302191135, 0.0033529156, 0.0182882566, 0.0114954207, -0.0021977180, 0.0106154028, 0.0280605387, 0.0431934856, -0.0126841264, 0.1081256494, -0.0067801024, 0.0487268828, -0.0267857052, -0.0850213841, -0.0326930545, -0.0017295504, 0.0360021964, -0.0001447194, -0.0291453265, -0.0646386370, 0.0393381231, -0.0462153777, -0.0049263132, -0.0320617333, -0.0006724193, -0.0109160868, -0.0087621398, 0.0362626612, -0.0407125354, -0.0444468297, -0.0208634529, -0.0414485857, 0.0177640654, 0.0397093706, -0.0873370171, 0.0224884115, -0.0307392869, 0.0073444196, -0.0449863933, -0.0145009411, -0.0146915969, -0.0371240452, 0.0127504757, 0.0266336631, 0.0007010393, 0.0526805669, 0.0348338857, 0.0219095070, 0.0420347005, -0.0147152161, -0.0142706418, 0.0242760554, 0.0281623676, -0.0602996126, 0.0282443035, -0.0668688715, -0.0274895243, 0.0110863149, 0.0038332844, 0.0638763160, 0.0208702758, 0.0777910873, -0.0387780145, 0.0094773117, -0.0597801507, 0.0235494561, -0.0441386104, -0.0152273066, -0.0692272037, -0.0756109506, -0.0008446702, -0.0616288856, 0.0081059951, 0.0087656332, -0.0042712153, 0.0103024784, 0.0369984470, 0.0803395137, -0.0063461773, 0.1000566632, 0.0567493662, 0.0455442481, 0.0469065197, 0.0706105232, -0.0594724379, -0.0075069577, -0.0447697975, 0.0117377415, 0.0718828663, 0.0060125249, 0.0115948403, 0.0267933514, 0.0062043834, 0.0034254845, 0.0416139737, 0.0850377008, 0.0124570252, -0.0348991938, 0.0325175002, 0.0484778509, 0.0096357157, 0.0640257522, 0.0308464281, 0.0481625497, -0.0168429948, 0.0351634398, -0.0120550720, 0.0352854654, -0.0475179926, 0.0242650844, 0.0994261354, -0.0346680991, -0.0281717032, -0.0712205395, 0.0289478358, 0.0919802263, 0.0135313002, 0.0525311306, -0.0059688445, -0.0477843471, 0.0643346384, -0.0202059951, 0.0868852213, -0.0026683721, 0.0155543229, 0.0402824916, -0.0165360849, 0.0098445639, 0.0446615554, -0.0213869717, 0.0091087539, 0.0355876908, 0.0021430939, 0.0096670920, -0.1012539864, -0.0609821640, -0.0360707976, 0.0129710063, -0.0198129769, -0.0307425056, 0.0438011885, 0.0870934427, 0.0150718838, 0.0323478505, -0.0462023243, 0.0195739400, -0.0116216838, 0.0168857686, 0.0843203813, 0.0791055337, -0.0128262490, -0.1056922823, 0.0005559812, 0.0384759232, 0.0272374284, -0.0075657079, 0.0296371728, -0.0912043303, 0.0520267151, -0.0254830159, -0.0918678045, 0.0197932590, -0.0071033803, -0.0047674235, 0.0508264266, 0.0557708368, 0.0332279280, -0.0611680746, -0.0404493026, 0.0075411708, 0.0684650540, 0.0238458924, 0.0171480775, -0.0166457631, -0.0176929161, 0.0464212857, 0.0391728207, -0.0160911772, 0.0277750865, -0.0249028374, -0.0006938403, 0.0243574996, -0.0412920974, -0.0758301318, 0.0173517633, -0.0957461223, -0.0061523137, -0.0100131333, 0.1169646159, 0.0526324660, -0.0214586295, 0.0786499530, -0.0732292458, -0.0869268104, -0.0653743148, -0.0458604023, -0.0560682677, 0.0294789504, -0.0829515681, -0.0026649567, -0.0307853669, -0.0645065382, -0.0132938558, 0.0140361357, 0.0250754654, 0.0244631600, -0.0196019560, -0.0312913358, -0.0061622965, -0.0140246768, -0.0016466203, -0.0027077650, -0.0762517750, -0.0344749093, -0.0455498546, 0.0357956253, 0.0291007869, -0.0438083038, -0.0099646877, -0.0174327567, -0.0342462100, 0.0313519314, 0.0570411757, 0.0313883461, -0.0062360056, 0.0165902600, 0.0839398876, -0.0632407442, 0.0101614008, -0.0180401523, 0.0080050929, 0.0500770397, -0.0537591539, 0.0836464465, 0.0659585074, 0.0133654429, 0.0027617647, 0.0014985949, 0.0686049163, -0.0296835043, 0.0591539182, -0.0093533648, 0.0353705660, 0.0349045992, -0.0749200732, -0.0829478949, 0.0171018969, -0.0835723504, 0.0620441958, -0.0122169023, -0.0210280623, 0.0278936252, -0.0116697140, 0.0003522285, 0.0511558838, -0.0150053222, 0.0213725585, -0.0227407794, -0.0228475276, -0.0227443334, 0.0221504774, 0.0549465455, 0.0199207086, 0.0658083037, 0.0005154048, 0.0743669048, 0.0247504581, 0.0267773643, -0.1306274682, -0.0370981097, -0.0119133946, -0.0459139496, -0.0229097027, 0.0056528351, 0.0097697284, -0.0113046616, 0.0577000119, -0.0138325188, 0.0759449154, -0.0829539895, -0.0131731667, -0.0541649126, -0.0183300506, 0.0077347523, 0.0056701880, -0.0067822197, -0.0259280875, -0.0701631382, -0.0324160531, 0.0568953417, -0.0610930063, 0.0406646244, -0.0424565934, -0.0194577537, -0.0692940876, 0.0144242486, -0.0707084835, -0.0461574495, 0.0252505075, 0.0489522219, 0.0218369458, 0.0155651532, 0.0450134985, 0.0545359328, 0.0189854633, -0.0046731173, -0.0825102031, 0.0298122298, 0.0389283150, -0.0915091261, -0.0060910867, -0.0335311443, -0.0459707305, 0.0115077468, -0.0496070236, 0.0390034094, 0.0251183361, 0.0353582799, -0.0054514501, -0.0043638540, -0.0684014857, 0.0348312408, -0.0388557687, -0.0165271237, 0.0001952097, -0.0149161108, -0.0507930033, -0.0062729940, -0.0024422114, 0.0334389769, -0.0241000336, 0.0020668295, 0.0263165589, -0.0177282561, -0.0592034645, 0.0251715034, 0.0084127495, 0.0106099471, 0.0333939195, 0.0155829294, -0.0245835073, -0.0022398657, -0.0285517424, -0.0323669799, 0.0407065637, -0.0316244364, 0.0131653845, 0.0114021981, -0.0436051004, -0.0407733172, 0.0764866397, 0.0150398817, -0.0001252852, -0.0234696027, -0.0065269880, -0.0311746914, -0.0298042651, 0.0260220189, -0.0528753586, 0.0439645536, -0.0461502150, -0.0262861140, 0.0057718353, -0.0311772563, -0.0517453738, -0.0140262516, 0.0106772725, -0.0149000371, 0.0382707827, -0.0608182214, -0.0404800735, 0.0257559884, 0.0344240256, 0.0166711546, 0.0134639600, -0.0116008660, -0.0107452841, -0.0510930531, -0.0051029534, 0.0200118143, -0.0183434654, 0.0436978787, -0.0367629565, 0.0280437917, -0.0212631617, -0.0085473889, -0.0431557409, 0.0234501883, 0.0150199812, -0.0047313399, -0.0405394882, -0.0500771403, -0.0135459891, -0.0010269403, -0.0203756336, -0.0008508605, 0.0226937793, 0.0476807877, 0.0314277373, 0.0366441309, -0.0364062712, -0.0368846543, -0.0066712718, 0.0039133565, 0.0018230934, 0.0617842190, 0.0065731499, -0.0215365328, 0.0102735441, -0.0116381329, 0.0336724408, -0.0266271029, 0.0282322969, -0.0407781862, 0.0147265671, -0.0276592001, -0.0550221205, 0.0507783405, 0.0045194887, -0.0003929773, -0.0007559945, 0.0334597006, 0.0431129038, -0.0602350570, 0.0030488814, 0.0282177944, 0.0164288823, 0.0435007289, 0.0360595956, 0.0082974993, -0.0183088407, 0.0254792143, 0.0256194212, 0.0428835303, 0.0386136174, -0.0068866424, 0.0146889901, -0.0117411185, 0.0052282126, -0.0279843379, 0.0320945494, 0.0064838934, -0.0025225217, 0.0057388349, 0.0373266004, 0.0068862909, 0.0093980990, -0.0009369284, 0.0075695738, -0.0116666304, -0.0361127220, -0.0021486972, 0.0093790106, 0.0203108042, -0.0456424914, 0.0231362637, -0.0025216413, -0.0549623482, -0.0371545404, -0.0207179394, 0.0157857705, -0.0160421915, -0.0161142107, 0.0369334370, -0.0148747973, 0.0121476455, -0.0343708135, 0.0257871915, -0.0563482419, -0.0179166887, -0.0215589143, 0.0104365489, -0.0104156127, -0.0466578975, -0.0162748042, 0.0124243516, -0.0520556308, 0.0391191430, 0.0063560563, 0.0719728917, 0.0123653375, -0.0322562344, -0.0208657887, -0.0440594926, -0.0166543107, 0.0149106802, 0.0422706120, -0.0217188802, 0.0517240614, 0.0569168031, 0.0017697449, -0.0477654934, 0.0175030734, 0.0015910991, 0.0412105471, -0.0125446133, -0.0014322986, -0.0265849419, -0.0239983145, 0.0007470133, -0.0288129468, -0.0122176912, 0.0066963341, -0.0080786422, 0.0449056663, 0.0389423072, 0.0084390091, -0.0212368518, -0.0304687172, -0.0011485012, 0.0172404759, -0.0270354077, 0.0325325541, 0.0345380791, 0.0181578379, -0.0123246750, -0.0066880342, 0.0184251443, 0.0159952398, 0.0002029515, 0.0329732150, 0.0023961612, -0.0098868273, -0.0208144393, -0.0637346804, 0.0403623395, -0.0828042775, -0.0054633864, -0.0419759415, 0.0437801220, -0.0190380923, -0.0035731487, 0.0466344021, -0.0089549301, 0.0136476113, -0.0160302911, -0.0270891096, -0.0432168022, 0.0317100994, 0.0080836946, 0.0408935063, -0.0194970425, 0.0537788011, -0.0044245529, -0.0499546677, 0.0363670848, -0.0650398508, 0.0387465395, 0.0031876895, -0.0049788104, -0.0185938068, -0.0312159769, -0.0090612322, -0.0359991863, 0.0174334850, 0.0465503223, 0.0182533339, -0.0174277760, -0.0122465286, 0.0327978730, 0.0279030986, -0.0239802729, -0.0397750288, -0.0099882754, 0.0010197842, 0.0097763250, 0.0015680029, 0.0371342562, -0.0438032709, 0.0110498527, -0.0265877489, 0.0017097761, 0.0340274349, 0.0425360873, -0.0254087634, -0.0022580321, -0.0553245582, -0.0323367715, -0.0225982796, 0.0227144659, -0.0124821030, -0.0143745178, -0.0266409889, 0.0122742206, -0.0170217659, 0.0496144705, -0.0238760281, 0.0184249580, 0.0126931639, 0.0232415833, -0.0056118909, 0.0408283770, 0.0041229832, 0.0144241797, -0.0182660352, -0.0038525257, 0.0123831658, 0.0329909846, 0.0018340811, -0.0214990750, 0.0037932373, 0.0083295582, 0.0266925488, -0.0002243768, 0.0100730369, -0.0606226102, -0.0079926252, 0.0006183332, 0.0121793561, -0.0095198248, 0.0390540324, 0.0298180971, -0.0195007287, -0.0204175860, -0.0171705186, -0.0025372913, -0.0333780460, -0.0109212520, -0.0390266441, -0.0658153221, -0.0338979997, 0.0285673421, -0.0063393880, 0.0090968162, -0.0018094550, -0.0273400862, -0.0116009414, 0.0102891494, 0.0478225164, -0.0034587532, -0.0011761026, -0.0096240984, 0.0326907523, -0.0864345506, 0.0441090316, 0.0195711348, -0.0101047568, 0.0080870194, -0.0280672424, 0.0011401997, -0.0021851680, -0.0585185103, -0.0519830249, -0.0013722545, 0.0229668710, -0.0304449107, -0.0342710130, -0.0097561954, 0.0232566204, 0.0175103266, -0.0315008052, -0.0021401974, 0.0211747363, 0.0008441831, -0.0005631908, -0.0103784092, -0.0783023760, 0.0334258787, -0.0018935020, 0.0141570829, -0.0084254863, 0.0334862582, -0.0365692824, -0.0022408448, 0.0002523998, -0.0408399813, 0.0376200229, -0.0597792678, 0.0023358345, -0.0463082381, 0.0334365554, 0.0291398726, -0.0442469083, 0.0230802186, -0.0151639888, 0.0283600930, -0.0119725531, 0.0058202306, 0.0338035710, 0.0139374714, -0.0367174409, 0.0370395668, 0.0154802427, 0.0339825675, 0.0097327521, -0.0230235942, -0.0141585348, 0.0325022154, 0.0239855051, -0.0111520253, 0.0580932051, 0.0228370056, 0.0301160961, -0.0472753718, 0.0338957906, -0.0411394276, -0.0017750623, 0.0066713747, 0.0104702953, 0.0738055110, 0.0335598327, -0.0240341797, -0.0227216817, -0.0081025157, -0.0312929414, -0.0430063121, -0.0229639784, -0.0297428239, -0.0551093891, -0.0290176515, -0.0211022627, -0.0135440957, -0.0442830622, 0.0110796727, 0.0155303674, 0.0243064482, 0.0402224921, -0.0496699996, 0.0147066079, 0.0816947371, -0.0120770233, 0.0252635982, -0.0297973398, -0.0125001743, -0.0218838621, 0.0277229864, 0.0096781515, -0.0081486143, 0.0098361298, -0.0101458635, 0.0109238820, 0.0005541752, -0.0255557187, 0.0231732205, -0.0116213718, -0.0194353741, -0.0220804811, -0.0384796187, 0.0435386747, -0.0305854455, 0.0001029712, 0.0341940299, 0.0481005050, -0.0067161983, -0.0292380415, -0.0105005894, 0.0499084629, -0.0747113228, 0.0535636358, 0.0185392834, -0.0038266557, -0.0248620566, -0.0223163664, -0.0450033769, -0.0167786255, 0.0264688823, -0.0084293382, -0.0561187826, -0.0206957553, -0.0298106913, -0.0174653679, -0.0078367256, -0.0385599770, -0.0107608410, -0.0540247709, -0.0336588398, 0.0346645191, -0.0247871596, 0.0066793808, 0.0038004788, 0.0321175754, 0.0117579773, -0.0142722037, -0.0150318742, 0.0132777356, 0.0436815023, 0.0401557423, -0.0231323130, -0.0001335729, -0.0154749257, -0.0428548530, 0.0449845754, -0.0765223876, -0.0208119191, -0.0143562825, -0.0015132835, -0.0071801441, 0.0249990411, 0.0748011991, 0.0030273548, 0.0463236347, -0.0536133423, 0.0100617260, -0.0051638233, -0.0249672271, 0.0073047457, 0.0129605774, -0.0145038413, 0.0343906619, 0.0138577241, -0.0142054120, -0.0005625805, -0.0328366570, 0.0535095185, -0.0013490451, -0.0568842404, -0.0164364353, -0.0007640179, -0.0400211923, -0.0275466889, -0.0393058769, 0.0294082202, -0.0300484337, -0.0293369759, -0.0004657370, -0.0060289996, -0.0169512834, 0.0053417683, -0.0204186123, 0.0550202653, -0.0281659234, -0.0315494984, 0.0067647910, 0.0350855365, 0.0276856441, 0.0201664083, -0.0069501027, -0.0077145933, 0.0030833676, 0.0472247489, -0.0247489996, -0.0443214774, -0.0479285754, 0.0011357692, -0.0088806674, 0.0171728060, -0.0029724108, -0.0260317978, -0.0245789979, -0.0495032072, 0.0014341451, 0.0456065424, -0.0358104147, -0.0111021698, 0.0471344963, 0.0272116065, -0.0297503043, 0.0150348404, -0.0034158537, 0.0334131978, -0.0061533251, 0.0123338187, 0.0029812688, 0.0052059465, -0.0348060913, -0.0170943085, 0.0468981080, 0.0035458063, 0.0244233739, -0.0129537042, -0.0178256836, -0.0304357428, 0.0051896321, -0.0049400968, -0.0059884158, -0.0306373369, 0.0122290244, 0.0265206452, -0.0196800660, 0.0354951248, -0.0082133645, 0.0077230171, -0.0352827571, 0.0221286435, -0.0003553274, -0.0524246767, -0.0134105850, 0.0338109285, 0.0118860882, -0.0146251367, 0.0279906373, 0.0022195606, -0.0370928906, 0.0399625935, 0.0297746286, -0.0059053609, 0.0165584497, -0.0368805528, 0.0560414083, -0.0377598219, 0.0013964818, 0.0128952991, -0.0525652617, 0.0158652291, -0.0331692509, 0.0183437075, 0.0030911991, -0.0462743752, -0.0429329835, 0.0035075587, -0.0289017484, 0.0357655026, 0.0203578211, -0.0330086239, -0.0476532802, 0.0169658549, -0.0357437916, -0.0662383437, 0.0439234450, -0.0032496084, 0.0152037693, -0.0289570112, -0.0037368317, 0.0202078111, 0.0081223194, 0.0159972217, -0.0190529153, -0.0149487481, -0.0385546573, 0.0077800029, 0.0145781217, 0.0094739851, 0.0329123959, -0.0231218990, 0.0512121841, 0.0084937504, 0.0054056565, -0.0031053962, -0.0177337546, 0.0169120114, -0.0201909170, 0.0178668331, -0.0128007876, -0.0024524706, -0.0035882918, 0.0049449760, -0.0184395052, 0.0249959901, 0.0267599821, -0.0106235454, 0.0298221335, -0.0348474570, -0.0130765364, 0.0205194000, -0.0021878688, -0.0319577456, 0.0203390568, 0.0032861878, 0.0096267713, 0.0166917462, 0.0613940954, 0.0225110129, 0.0290299430, -0.0190884136, 0.0318119973, 0.0186442826, -0.0054243351, 0.0076454068, 0.0027586671, 0.0406270474, -0.0258679204, -0.0048697209, -0.0358008929, 0.0116167478, -0.0037441647, -0.0364601202, -0.0033845832, 0.0170885473, -0.0200665407, -0.0186828729, -0.0166556612, 0.0109242555, 0.0257049613, -0.0290659908, 0.0300854277, 0.0288285967, -0.0073722317, 0.0024383329, -0.0012265885, -0.0135164456, -0.0124870995, -0.0035376954, -0.0234795026, -0.0479094870, 0.0562700629, 0.0142823337, -0.0207725428, 0.0380618609, -0.0515825897, -0.0201843604, 0.0138326390, -0.0082568740, -0.0102872849, -0.0313779041, -0.0175130367, -0.0608077832, 0.0093705710, 0.0489542112, 0.0300773997, 0.0148583585, -0.0501870811, 0.0337367244, -0.0071279164, 0.0039639822, -0.0179187227, 0.0063644289, 0.0564825982, -0.0082373209, -0.0233056936, -0.0387777202, 0.0463006087, 0.0291233547, -0.0021138943, -0.0241423994, -0.0086003831, -0.0368907973, -0.0232424680, 0.0283964034, -0.0148468651, -0.0080610905, -0.0215676427, -0.0139883142, 0.0229697563, -0.0157528222, 0.0406267270, 0.0450388789, -0.0025770783, 0.0229008310, 0.0067144283, 0.0195382424, 0.0577864833, -0.0183944982, 0.0343843699, -0.0125526963, 0.0111434842, -0.0364393555, -0.0133046117, -0.0363497064, -0.0322348550, -0.0245081168, -0.0147358095, 0.0477055237, -0.0275564026, -0.0364099145, 0.0046419343, -0.0315972380, 0.0331241935, -0.0280940887, -0.0316318050, -0.0207512472, -0.0351162553, -0.0085914219, 0.0403193794, 0.0290248506, 0.0394963585, -0.0285247341, -0.0050265891, 0.0094283763, -0.0627934560, 0.0288648903, -0.0290793739, -0.0124804107, -0.0177759882, -0.0235044863, -0.0276015773, -0.0391099080, -0.0090607014, 0.0359021537, 0.0153072672, -0.0116023561, -0.0326150246, 0.0109844794, 0.0298114717, -0.0315034874, -0.0425489023, 0.0635274425, 0.0230820850, -0.0298444722, 0.0112473983, -0.0141094606, -0.0254491717, -0.0147821084, 0.0079216734, 0.0130458586, 0.0243736971, -0.0138847893, 0.0021340188, -0.0027807257, -0.0290085878, -0.0341689810, 0.0176874250, 0.0207555052, -0.0249658171, -0.0098573379, 0.0288628582, -0.0194374491, 0.0253152233, 0.0377621837, -0.0125808893, -0.0044337199, 0.0206734743, 0.0420779921, 0.0007068067, -0.0084502492, 0.0136858970, 0.0263555031, -0.0256234650, -0.0346923582, -0.0002278255, 0.0009677244, -0.0018381791, 0.0237294454, 0.0301198978, 0.0028524208, -0.0344432853, -0.0317562856, 0.0179548077, -0.0198255759, -0.0366174057, -0.0162870456, 0.0476059467, 0.0345141739, -0.0067866249, -0.0431117117, -0.0230971221, 0.0032472624, 0.0155960759, -0.0045721754, -0.0323898606, 0.0408205949, 0.0051495004, -0.0219518207, 0.0255493056, 0.0243198667, 0.0007857580, -0.0488103554, 0.0113974214, 0.0116400858, -0.0245220028, -0.0094480030, -0.0024737939, -0.0116423275, -0.0083672870, 0.0333467461, 0.0161637347, -0.0113627072, -0.0289044399, -0.0204626024, 0.0069534527, -0.0096955039, -0.0312555246, 0.0159507841, -0.0210474599, 0.0069693462, -0.0165261105, -0.0442457646, -0.0309641510, 0.0095283026, 0.0098575884, 0.0061028632, 0.0128360782, 0.0515692085, 0.0255521368, -0.0517166108, 0.0429773293, 0.0043581142, -0.0190154482, 0.0313233547, -0.0003567956, -0.0338133574, -0.0183802377, 0.0484688580, 0.0004528210, 0.0039242739, -0.0334234387, 0.0052118106, -0.0057258881, -0.0455326661, 0.0132675935, 0.0069915173, 0.0584532432, 0.0098782564, -0.0425398909, 0.0294442438, -0.0255676545, 0.0106584048, -0.0045533772, -0.0313265771, -0.0133824181, 0.0201861002, -0.0151497023, -0.0323335901, 0.0232363585, 0.0385425277, -0.0327213220, 0.0302310679, -0.0003317593, 0.0298723746, -0.0188890584, -0.0168335196, -0.0110007562, 0.0220940262, 0.0136202322, -0.0459995493, -0.0331349857, 0.0165077392, 0.0130374748, -0.0044840863, -0.0067492872, -0.0236404277, 0.0303537361, -0.0099184643, 0.0172022432, 0.0340073444, 0.0018811242, -0.0185433365, 0.0053537344, -0.0190875158, -0.0098315543, -0.0032947150, -0.0444785468, -0.0206398107, -0.0221795328, -0.0025563943, -0.0320530608, -0.0084977150, 0.0035606753, -0.0169692077, -0.0011935636, -0.0172672831, 0.0005003622, -0.0233771726, -0.0204990059, -0.0040164036, 0.0182926022, -0.0180216208, -0.0075664921, -0.0039230655, 0.0021449942, -0.0016890758, 0.0036646966, 0.0042344914, -0.0127203288, -0.0044444427, -0.0240626484, 0.0215330068, -0.0019354282, -0.0067199809, -0.0242827218, -0.0166872051, 0.0085927863, -0.0545235872, -0.0265701823, 0.0065982086, -0.0267183948, -0.0252297726, -0.0330127329, -0.0187260322, -0.0184955914, 0.0252363179, -0.0174441412, 0.0071329148, 0.0448920354, -0.0212957691, 0.0046850918, -0.0186927561, 0.0108107375, 0.0319607109, -0.0528811030, -0.0260096341, -0.0313170478, 0.0124982838, -0.0217235107, 0.0371712297, -0.0248783343, 0.0293636322, -0.0092843212, 0.0190452207, 0.0215605069, 0.0008994679, -0.0004256525, 0.0352889672, -0.0178014860, 0.0372233279, -0.0283615440, 0.0535414219, 0.0352381878, -0.0338132493, 0.0310507677, 0.0129097346, -0.0232882369, 0.0098467842, -0.0099433474, -0.0350504778, -0.0050522625, 0.0151632661, -0.0205000974, 0.0256697778, -0.0149466954, -0.0204365328, 0.0384848192, 0.0014621242, -0.0380682759, 0.0027637559, -0.0275839716, -0.0392429307, -0.0410930179, -0.0270957239, 0.0078264158, -0.0196218975, -0.0451326519, 0.0071762078, -0.0071051600, -0.0106568327, -0.0022483494, -0.0019571919, -0.0052102907, -0.0034650427, 0.0171775967, 0.0206241813, 0.0247518159, -0.0153312990, 0.0104086762, 0.0008391836, 0.0335797705, 0.0230986997, -0.0394785479, -0.0105920024, -0.0132709062, 0.0150346700, -0.0149232540, 0.0441721864, 0.0244965609, -0.0165417623, -0.0174464360, -0.0462142564, -0.0052604787, -0.0209037513, -0.0187783875, 0.0375858769, 0.0006013819, 0.0042723501, -0.0135276476, -0.0276642479, 0.0088735288, -0.0515596010, 0.0059368219, 0.0045550452, 0.0043772482, -0.0165938046, 0.0111133242, -0.0043682037, 0.0217382312, 0.0159228910, -0.0263774637, -0.0163214151, 0.0256592482, 0.0206459425, -0.0067077572, -0.0207028873, 0.0265574940, 0.0495027676, -0.0334084816, 0.0266960636, -0.0387648121, -0.0193726197, -0.0089988466, -0.0144175384, 0.0108108921, -0.0501297899, -0.0186068006, -0.0327745341, 0.0135968309, -0.0409840308, 0.0366001166, 0.0352553949, 0.0422373451, -0.0037906240, 0.0303598847, -0.0429980308, -0.0475534424, -0.0122894626, 0.0011105479, 0.0344547927, -0.0125175510, 0.0364952981, 0.0296841357, -0.0111645926, 0.0069126561, 0.0254963692, 0.0107330745, -0.0031520603, 0.0123514552, -0.0197510049, 0.0265263971, 0.0174693745, 0.0580486618, -0.0196439959, 0.0403184816, -0.0147450725, 0.0381788500, 0.0162247010, -0.0394745208, 0.0065960875, -0.0182278734, 0.0036935471, -0.0129915141, 0.0028760384, -0.0075790510, 0.0012503967, 0.0032036365, -0.0254274607, 0.0248144567, 0.0305020530, 0.0147179430, -0.0250141006, -0.0188485142, 0.0262369365, 0.0185208041, -0.0103358161, 0.0382222943, -0.0303600710, 0.0256499555, -0.0022778157, -0.0100454716, 0.0053788074, 0.0011825172, 0.0466430150, -0.0266835000, -0.0080527170, -0.0167251639, 0.0147791803, 0.0217175744, -0.0127927102, 0.0112903779, 0.0109393867, -0.0192213003, -0.0272319522, 0.0048832241, -0.0020158086, -0.0062460378, 0.0122797610, 0.0185567662, -0.0024214343, 0.0389440060, 0.0220300071, -0.0297427308, -0.0060009812, -0.0364074819, 0.0364778079, 0.0344570614, 0.0197110213, 0.0405880548, -0.0023655426, -0.0016384029, 0.0126105621, 0.0147439428, 0.0203848928, 0.0248191431, -0.0103535345, -0.0210251771, 0.0088795805, 0.0240089148, 0.0349856988, 0.0217187479, 0.0070226355, -0.0115296422, -0.0279787667, -0.0246529933, 0.0076650153, 0.0116427755, 0.0236325040, 0.0227578320, -0.0182707198, -0.0452558063, -0.0113052148, -0.0291776415, 0.0375604481, -0.0293622445, -0.0312606245, -0.0143211717, -0.0326852351, 0.0142023666, 0.0088661388, 0.0387942009, 0.0363963507, -0.0139676388, 0.0271297134, -0.0113440529, -0.0246362258, 0.0323246084, -0.0001820334, 0.0083583705, 0.0335044339, 0.0131052779, -0.0323071703, -0.0196525902, 0.0107245576, -0.0284359958, -0.0173630267, -0.0324053876, 0.0178823266, 0.0186357386, 0.0376236066, 0.0038773329, -0.0207399484, 0.0165885892, -0.0370798483, 0.0184433889, 0.0057690460, 0.0074570361, -0.0258283354, 0.0300281178, 0.0454077385, -0.0088493070, 0.0020296404, 0.0190014467, -0.0217933562, 0.0355498902, 0.0303271394, -0.0414618924, 0.0194068365, -0.0111200158, 0.0089057786, -0.0016788204, 0.0134959761, 0.0089489417, 0.0254634414, -0.0327097960, -0.0167589504, -0.0277451240, 0.0308486130, 0.0177575797, -0.0326264501, -0.0258848537, 0.0251884479, 0.0442464761, -0.0142771667, -0.0011263187, 0.0395225808, -0.0187901799, 0.0050131795, 0.0553281046, 0.0088980505, -0.0059162029, 0.0142202713, -0.0087020397, -0.0205393769, -0.0442787856, -0.0191948973, -0.0450686477, -0.0101096844, -0.0021989534, -0.0112529518, 0.0472967736, 0.0275623146, -0.0187277533, 0.0275860019, -0.0155839417, -0.0000679419, 0.0035781066, -0.0337708183, 0.0006631885, 0.0157361589, -0.0027125506, -0.0345419534, -0.0121239256, 0.0211241618, 0.0075292005, 0.0014784014, -0.0174191408, 0.0037187065, -0.0192890465, -0.0171920676, -0.0300566498, -0.0033269331, -0.0002921532, -0.0366303697, 0.0047336211, 0.0479333438, 0.0584824644, 0.0317241214, 0.0080365259, 0.0254697576, 0.0229464378, 0.0301720053, -0.0280497018, -0.0013871078, 0.0169139896, 0.0299832840, 0.0401624590, 0.0186391175, 0.0203115903, -0.0160966385, -0.0340833291, 0.0351840593, -0.0088092703, 0.0354760289, -0.0122849392, -0.0310267471, -0.0112989992, -0.0438419953, 0.0049277702, -0.0092485556, -0.0052117589, -0.0275184009, 0.0268985126, -0.0042902953, 0.0181370005, 0.0369208977, -0.0298209079, -0.0268624052, -0.0222069789, -0.0032160112, -0.0039157816, 0.0001899971, 0.0066396678, 0.0101733925, 0.0250606500, -0.0102063622, -0.0234444831, 0.0247910656, -0.0074016005, -0.0182398167, 0.0310560949, -0.0454467125, -0.0268368796, 0.0270024873, -0.0092455391, -0.0277621187, 0.0128836902, 0.0088561876, 0.0328921787, -0.0014185427, -0.0244109388, -0.0310494862, -0.0011253364, 0.0223126300, 0.0270770509, -0.0111169713, -0.0415527634, -0.0138814552, -0.0287748165, 0.0136701185, -0.0051490422, 0.0030224605, -0.0302352160, 0.0096452469, -0.0090484628, 0.0034023023, -0.0277947597, 0.0105436519, 0.0219803508, 0.0235585850, 0.0321157202, 0.0127248429, 0.0319856517, -0.0127508650, 0.0356160179, -0.0302416217, 0.0032895254, -0.0295861699, 0.0126980320, 0.0083272560, 0.0106929960, 0.0239814408, -0.0136975730, 0.0264934935, -0.0054306155, 0.0226886552, 0.0093220007, 0.0350963213, -0.0243329722, -0.0057837134, -0.0286584646, -0.0121240113, -0.0101543823, 0.0162456967, 0.0266778134, 0.0187986698, 0.0271011889, 0.0094069745, 0.0445392467, 0.0243388060, 0.0110810548, -0.0083455583, -0.0182227436, 0.0321296975, -0.0114085972, -0.0125526786, -0.0101795336, -0.0258763190, -0.0251951609, -0.0275806226, 0.0232516117, -0.0064348606, 0.0297999009, 0.0005836162, -0.0360047892, -0.0164815895, -0.0073303860, -0.0008535303, 0.0114921592, -0.0366878211, 0.0073681180, -0.0019482444, -0.0231721904, -0.0005277036, 0.0015617041, 0.0231143180, -0.0066610621, 0.0044610286, 0.0242755003, 0.0033962631, 0.0132670198, -0.0023153713, 0.0185108446, 0.0001637126, 0.0176242478, -0.0091480268, 0.0407364592, 0.0093790619, 0.0052584116, 0.0253815595, -0.0066695143, 0.0219296701, 0.0038827879, 0.0176310744, -0.0237913392, 0.0074074310, -0.0435854681, -0.0015313438, -0.0237136856, -0.0059542330, -0.0350020379, -0.0375559069, -0.0382754467, 0.0212332923, -0.0317748040, 0.0145370513, -0.0184138045, -0.0213723518, 0.0073588742, 0.0257291347, 0.0042045554, 0.0009528882, 0.0143344831, -0.0063423063, -0.0230503920, 0.0309598353, 0.0120860161, -0.0199845713, 0.0336702131, 0.0073135844, 0.0261472277, 0.0055362708, -0.0007210444, -0.0115362033, 0.0036912421, 0.0067467201, 0.0064653666, 0.0068689389, -0.0010281305, -0.0249269791, 0.0137253460, 0.0353459753, -0.0035924471, -0.0196616445, 0.0286125932, -0.0094140451, 0.0137201780, -0.0142912911, 0.0021704636, 0.0151063344, 0.0448008105, 0.0396158881, -0.0214372352, 0.0280458387, 0.0341177881, 0.0332118496, 0.0168019719, 0.0153341964, -0.0083764689, -0.0054413192, 0.0174921695, -0.0253903512, 0.0191986542, 0.0369657278, -0.0056540905, 0.0080854176, 0.0211343709, -0.0178761315, 0.0258283857, -0.0036666859, 0.0211559813, 0.0186445080, 0.0325806662, 0.0312300641, 0.0149665549, -0.0069506052, -0.0314667560, -0.0268590525, -0.0221341141, -0.0046863905, -0.0101743266, -0.0018659019, 0.0093480442, 0.0286970418, -0.0046434086, -0.0248476155, 0.0240122806, -0.0174215827, -0.0238664504, -0.0218524393, -0.0010234999, 0.0227229837, -0.0088424701, 0.0072099078, -0.0477555916, -0.0383946970, 0.0272319913, -0.0233104676, -0.0235514790, -0.0216640513, 0.0133009758, -0.0172306020, -0.0182713810, 0.0303203389, 0.0092992177, -0.0230197925, -0.0213616993, 0.0401395001, 0.0157694444, 0.0093020638, -0.0132557955, 0.0013673065, 0.0128541039, -0.0063799117, 0.0241708215, -0.0115358839, -0.0138611812, -0.0262320843, -0.0197844319, 0.0122645842, -0.0054966607, 0.0270418506, -0.0196522772, -0.0239388514, -0.0282791518, -0.0003720349, -0.0173291434, 0.0423579253, -0.0204259623, -0.0099949418, -0.0274768602, -0.0150890574, 0.0068567120, -0.0071993745, -0.0169827491, 0.0319116004, 0.0363775082, -0.0034460928, 0.0267986283, -0.0284278449, 0.0073187854, 0.0375987850, 0.0071479902, 0.0218370967, 0.0113406293, 0.0070505766, 0.0422165729, 0.0355785787, 0.0015563964, 0.0313787609, -0.0041207257, 0.0352214389, -0.0182224903, 0.0063856319, -0.0002966357, 0.0222472474, -0.0168580245, 0.0111992024, -0.0107901618, -0.0145504950, 0.0111159114, 0.0193631668, 0.0113867028, 0.0011725638, 0.0311189890, 0.0021254411, -0.0072093238, -0.0184454173, -0.0103306677, -0.0103642298, 0.0225404520, -0.0120086726, -0.0041865371, -0.0227497183, 0.0175650287, 0.0081303082, 0.0217228755, 0.0098813083, -0.0256783441, 0.0001051596, -0.0118487282, 0.0360414833, 0.0356702022, 0.0233784914, 0.0224510543, 0.0402679332, -0.0089799287, 0.0174069740, -0.0264787059, -0.0220096819, -0.0251872353, -0.0096356785, 0.0325098485, 0.0236373059, -0.0115990657, 0.0368829183, -0.0114953453, -0.0190682262, 0.0184551124, -0.0227007773, 0.0182317570, 0.0181018226, -0.0033637141, 0.0199118685, -0.0308243390, -0.0102901803, -0.0091992356, -0.0301793423, 0.0009033949, 0.0271616746, 0.0111646932, -0.0063995095, -0.0282930266, 0.0085367253, 0.0067629647, 0.0178692807, -0.0202767029, 0.0181640461, -0.0187874194, -0.0377605297, -0.0135766910, -0.0020978421, 0.0024083927, -0.0280872192, 0.0293773487, -0.0156879481, -0.0121674929, -0.0221324395, 0.0045101787, -0.0118757393, -0.0411632732, 0.0303914342, 0.0176387858, -0.0036319357, -0.0044212118, -0.0332936458, -0.0094675133, 0.0047237771, 0.0295803621, 0.0323051400, 0.0243405271, -0.0410129018, 0.0087679652, -0.0019085626, -0.0175966993, 0.0010578758, 0.0345825702, -0.0158736948, -0.0127123380, -0.0307148322, -0.0261391476, -0.0177442264, 0.0448262691, 0.0112743462, 0.0110275922, 0.0260874499, 0.0181678515, -0.0022032773, -0.0212987494, 0.0329968072, 0.0037212535, 0.0099956021, 0.0144779496, -0.0215696152, 0.0051506478, 0.0312448759, -0.0050209844, -0.0078997212, -0.0109960195, 0.0122582968, -0.0035857612, 0.0073551098, 0.0006747789, 0.0014607151, 0.0100621525, -0.0031260978, -0.0003646850, -0.0255886745, 0.0373904295, -0.0096068382, 0.0151317557, 0.0039447369, 0.0114599457, -0.0188665539, -0.0246294290, -0.0370277166, -0.0079586711, 0.0132119805, 0.0249479506, 0.0015207186, -0.0227861945, 0.0028293626, 0.0215257350, -0.0192250106, -0.0215797238, -0.0392881222, -0.0032733171, 0.0252020452, -0.0243221223, -0.0448797680, 0.0110629657, -0.0144102592, -0.0132613275, 0.0097876750, 0.0035778419, 0.0212844256, 0.0405581966, -0.0198341925, -0.0052419398, 0.0100431629, 0.0133188544, -0.0128678950, 0.0069478084, 0.0164297204, 0.0314327925, -0.0183969941, 0.0073797996, 0.0456003696, -0.0094029950, -0.0108780926, -0.0031088111, 0.0106036318, 0.0159823596, 0.0380250663, 0.0014767124, -0.0221087895, 0.0048853289, 0.0351043530, -0.0039251372, 0.0081235329, 0.0448471718, -0.0100282319, 0.0049190163, -0.0347368680, 0.0183009077, 0.0359327309, -0.0018989256, -0.0084791994, 0.0296562780, -0.0287825856, -0.0012916038, 0.0398678407, 0.0373522937, -0.0019485067, -0.0233160947, -0.0141645670, -0.0060240049, -0.0122313090, -0.0077418946, -0.0183618367, 0.0060422532, -0.0253065955, 0.0542263761, -0.0406976901, 0.0177862085, -0.0045322254, 0.0248853788, 0.0245631821, -0.0347303450, 0.0442960933, 0.0212690346, -0.0505641215, -0.0203334279, 0.0469101891, -0.0137726683, -0.0161472075, -0.0114601003, 0.0170441661, 0.0401978604, 0.0174851865, -0.0199161228, 0.0167146400, -0.0194772072, 0.0039512301, -0.0236796737, -0.0236241110, 0.0240792874, 0.0358307511, 0.0241457298, -0.0327051505, -0.0230759885, -0.0116013270, -0.0155582484, 0.0294476356, -0.0130781708, -0.0047335071, 0.0216196552, -0.0205444861, -0.0166932140, -0.0104391957, 0.0399719216, 0.0042073349, -0.0062638242, 0.0077000703, -0.0077182786, 0.0039928197, 0.0113516310, 0.0056461552, 0.0092623783, 0.0144331045, 0.0296597965, -0.0012785211, 0.0167956017, -0.0158517193, -0.0006957493, 0.0348554179, -0.0134448372, 0.0305006821, -0.0284669511, -0.0014936078, 0.0206323229, 0.0212554578, 0.0480259359, -0.0066002202, -0.0152054336, 0.0100872247, -0.0259444863, -0.0292415936, 0.0297602843, 0.0157779679, 0.0082638040, 0.0176662412, 0.0174377933, -0.0274077170, -0.0283815134, 0.0215202533, 0.0212039128, -0.0042362548, -0.0174835790, 0.0201227162, -0.0021665129, -0.0119422805, 0.0170395356, -0.0280129313, -0.0236950237, 0.0128800180, -0.0242883153, 0.0016715421, 0.0354938284, 0.0022788772, -0.0080470648, -0.0122406753, 0.0167131722, 0.0372740366, -0.0252199974, -0.0010069979, 0.0325511284, -0.0226638410, 0.0413796157, -0.0066189677, 0.0075309486, -0.0110485340, -0.0020148482, 0.0333320946, 0.0005169426, -0.0061887791, 0.0210456178, 0.0109120132, -0.0013891893, 0.0169930160, 0.0010204648, 0.0362333320, 0.0396147184, 0.0110569112, 0.0346911848, -0.0063510593, -0.0206748582, 0.0472275019, 0.0292927530, 0.0139637096, -0.0095488224, -0.0022478336, 0.0160331801, -0.0232113507, -0.0053063957, -0.0286848266, -0.0262069162, -0.0049746558, 0.0362667888, -0.0189912859, 0.0252051707, -0.0037510328, -0.0000505659, 0.0192827825, 0.0012186123, 0.0444868766, 0.0130791441, 0.0117942765, -0.0138866119, 0.0144265573, 0.0257454943, 0.0214682240, -0.0145865316, -0.0170255397, -0.0035572078, 0.0174582582, 0.0420243442, -0.0188857820, 0.0203054231, -0.0238518175, -0.0105002047, 0.0083341533, -0.0080761285, -0.0216605030, 0.0254686829, -0.0192225296, 0.0207900126, -0.0283185206, 0.0303894915, 0.0073769004, -0.0199260078, -0.0148952994, 0.0361767374, 0.0168539602, -0.0170051791, 0.0234897491, 0.0248336978, -0.0137843760, 0.0242403112, -0.0104357796, -0.0313104801, 0.0392553583, -0.0324915424, 0.0030568859, -0.0165840182, 0.0143679595, 0.0084383357, 0.0056523550, 0.0444909856, 0.0050728680, -0.0133615956, -0.0133903464, -0.0128895286, 0.0202553123, 0.0278105494, -0.0076896795, -0.0130245807, -0.0040086983, 0.0381826684, -0.0237903558, 0.0347129256, 0.0249031913, -0.0287272818, -0.0066706897, -0.0003162697, 0.0168718584, 0.0149050457, -0.0406014733, -0.0014731261, 0.0038038765, 0.0315660834, -0.0200271327, 0.0015936272, 0.0457764752, -0.0192849711, 0.0030681659, -0.0094606308, 0.0155203808, -0.0243050419, -0.0225080792, 0.0241597611, 0.0213179532, -0.0000114067, 0.0376061574, 0.0219363198, -0.0095863901, -0.0373044871, -0.0093550524, -0.0093385149, 0.0330782197, -0.0172651410, 0.0111918384, -0.0200881381, -0.0100930780, 0.0255293455, 0.0332526304, 0.0451723263, -0.0247675665, -0.0157724340, 0.0169146955, 0.0367232636, 0.0084424168, -0.0052706501, -0.0239838026, -0.0141814379, -0.0087366672, 0.0022816777, -0.0066001527, -0.0321451724, -0.0024360151, 0.0056538205, 0.0090959035, 0.0130372234, -0.0254191961, 0.0286580417, -0.0143523617, -0.0026937309, 0.0384961292, 0.0328617468, 0.0335853845, 0.0381808765, -0.0343787521, -0.0001704745, 0.0090178065, 0.0103301015, -0.0578743927, 0.0099605750, -0.0128497696, 0.0091701439, 0.0119687123, 0.0098069506, -0.0103421779, -0.0250162892, 0.0331643261, -0.0414472222, 0.0001654015, -0.0421219990, 0.0009256845, -0.0078923404, 0.0039835577, -0.0191783756, 0.0028073008, 0.0421591252, -0.0210171696, 0.0438749902, -0.0243716314, 0.0247539263, 0.0127333151, 0.0250214785, -0.0045916871, -0.0217473321, 0.0200405251, 0.0282226149, 0.0029427218, -0.0092021702, 0.0019283127, -0.0246625356, 0.0303015057, -0.0073743165, 0.0455870405, -0.0097922003, 0.0147882886, 0.0015178460, 0.0293031670, -0.0306122359, -0.0149315502, 0.0181078594, -0.0320422910, -0.0149723226, 0.0255811550, 0.0329826809, -0.0140630258, -0.0134924175, 0.0351375490, 0.0052919323, 0.0325320810, -0.0157561433, 0.0313328467, 0.0071491962, -0.0094437711, 0.0362580270, -0.0090519078, 0.0083317012, -0.0034850452, -0.0379020013, 0.0137964776, -0.0001491690, 0.0056862691, -0.0065016979, 0.0234738514, 0.0326660722, -0.0256900433, -0.0072047506, 0.0301280320, 0.0186909158, 0.0224866252, 0.0488719717, -0.0113066249, -0.0094626937, -0.0050728600, 0.0349648222, 0.0434305035, -0.0189134665, -0.0012932764, -0.0209106244, 0.0271617714, 0.0129048303, -0.0208727904, -0.0185503140, 0.0203948244, -0.0035148871, -0.0080219470, 0.0114015033, -0.0017149406, 0.0029810849, 0.0310330559, 0.0064099440, -0.0100252582, -0.0184511207, -0.0094388882, 0.0231157094, -0.0029131169, 0.0140155125, -0.0416589640, 0.0395535864, 0.0397191979, 0.0127742244, 0.0204735659, 0.0133989081, -0.0117777325, -0.0234862585, -0.0112041226, -0.0283083636, 0.0044914535, 0.0332609639, 0.0275989957, 0.0125775142, 0.0340543687, 0.0350968949, -0.0028171632, 0.0349225961, 0.0052303676, 0.0365293436, 0.0410301164, 0.0213330258, 0.0044854828, 0.0306197088, 0.0263749640, 0.0351486094, 0.0250332579, -0.0172217656, 0.0000570487, 0.0260721799, 0.0170662347, 0.0244927853, -0.0238282345, -0.0331116952, 0.0352936983, 0.0223090425, 0.0321712978, 0.0366483703, -0.0102842748, -0.0350337066, -0.0136977332, 0.0432197116, 0.0337105617, -0.0198864434, -0.0457831807, -0.0328623988, 0.0032999704, -0.0111882910, 0.0456829779, 0.0020676593, -0.0433788709, 0.0320795700, 0.0034937658, 0.0297082737, 0.0338060223, -0.0029575124, -0.0168856215, -0.0204163734, 0.0308345929, 0.0350736566, -0.0024241547, -0.0144428108, 0.0164497495, 0.0144400476, -0.0193593167, 0.0018308328, -0.0181061402, 0.0164101701, 0.0072754133, 0.0273537710, -0.0247729272, 0.0230868254, -0.0299108736, 0.0120706446, -0.0175441969, 0.0130539248, 0.0315513313, 0.0141761508, -0.0125853019, -0.0244672503, 0.0087001547, -0.0059737451, 0.0179923046, -0.0333633125, 0.0177241899, -0.0031573647, 0.0281800423, -0.0067790295, -0.0274443235, -0.0112194810, -0.0122621460, -0.0266418532, -0.0050296257, -0.0221759193, -0.0422929376, 0.0089729531, 0.0390314907, -0.0084568094, 0.0081870584, 0.0424864739, 0.0237523858, -0.0393180773, -0.0122255972, 0.0226036403, -0.0313129202, -0.0345178545, -0.0154992398, 0.0181959234, 0.0178350098, 0.0129219471, 0.0340532847, 0.0343221202, -0.0172013007, -0.0146034751, -0.0200690571, -0.0187812243, -0.0083501879, -0.0005821460, 0.0036815908, -0.0325309858, -0.0166170932, 0.0045715747, 0.0018837261, 0.0077086682, -0.0322762914, 0.0028958395, -0.0038835080, -0.0091001811, 0.0027780258, -0.0200175736, 0.0203044359, -0.0207377728, 0.0177579336, -0.0091141416, 0.0273260716, -0.0160519741, 0.0081325090, -0.0222938862, 0.0234393589, -0.0062370184, 0.0082536507, -0.0213297326, 0.0287201367, -0.0019746714, -0.0007121416, -0.0150050977, 0.0303167999, -0.0168266911, 0.0156450532, 0.0205224138, -0.0083905747, -0.0000673312, -0.0229875427, 0.0103671886, 0.0385717005, 0.0149524836, -0.0095176147, -0.0192165300, 0.0056277267, -0.0401005186, 0.0134887295, -0.0107076094, 0.0181609951, 0.0366992056, 0.0294752587, 0.0304343104, 0.0103572365, 0.0258097108, 0.0295903552, -0.0364745893, 