//Numpy array shape [1, 10, 64]
//Min -0.599378287792
//Max 0.217344596982
//Number of zeros 0

#ifndef W13_H_
#define W13_H_

#ifndef __SYNTHESIS__
_9_weight_t w13[640];
#else
_9_weight_t w13[640] = {0.0692898333, 0.0974519029, -0.1322453320, 0.0724938810, -0.0533096679, -0.2166708112, -0.0471898876, -0.1141133979, -0.1715269685, 0.0001211951, -0.0489695892, -0.0800489709, -0.0630012825, -0.0956315398, 0.1559152901, -0.1633487046, 0.0436648093, -0.0946506634, 0.1251840740, -0.0063991318, -0.0473295525, -0.0408475399, 0.0024427064, 0.0453369245, -0.0281880125, -0.0451766923, 0.1000869796, 0.0236194637, -0.0970491096, -0.0313531719, 0.1011960730, -0.1444414556, -0.0617956370, 0.1136502996, 0.1003234535, -0.4248256981, 0.0811167285, -0.2827721238, -0.2407957315, -0.3860565126, -0.1149929836, -0.1376627088, 0.0251541175, -0.0497262739, 0.0989746228, -0.1688674390, 0.0916447192, 0.1266790479, 0.1025393382, -0.0018648193, -0.1876641512, -0.1010423601, 0.0433562286, -0.1307549030, 0.1019966677, -0.1576367468, -0.0125384023, 0.0845080838, -0.1715673208, 0.1364108175, 0.1309333742, 0.0734390691, 0.1375129670, -0.1558109969, 0.0631456375, 0.0992428213, 0.0916378945, -0.1839604825, -0.1611715853, -0.0884968564, 0.0814846680, -0.1657313257, 0.0533874184, 0.1059237793, -0.0567198768, 0.1058552936, 0.0742391720, 0.0426915362, -0.0523308031, -0.2868102193, -0.1179433838, -0.1810351461, -0.2182058096, -0.1041752025, -0.1713251621, 0.0800685212, -0.1880600303, 0.1020533368, 0.0557590835, 0.1059628353, -0.1189472601, 0.1133207083, -0.2153365761, 0.0724768266, -0.1494304687, 0.0006444359, -0.1312280297, 0.0348242819, -0.1201100945, 0.0231413208, 0.0222639870, -0.1409798861, 0.1089600027, 0.0407232717, -0.0101405140, -0.2881107330, 0.1170046329, 0.0529787838, 0.1353690028, -0.0376680121, 0.1030308157, -0.1322409362, -0.0956345201, -0.0767880082, -0.0879983455, -0.0570294075, 0.0534990504, -0.1502414495, 0.1185635105, 0.1150816754, -0.1219990999, 0.1226982549, 0.0927053913, -0.2097174078, -0.0451669618, 0.1108309850, -0.0675123408, 0.1176947579, -0.0492296815, -0.1017422304, 0.0892092660, -0.0818696618, -0.0777698979, -0.1398683488, -0.1204083413, -0.1220172271, 0.1010212600, -0.1428093314, 0.0713992566, 0.0250977837, 0.1486892402, -0.1073310971, -0.1032174900, -0.0507105701, -0.0214445442, -0.0575083680, 0.1372900605, -0.1718305498, 0.1394078732, -0.2597102225, 0.0399271362, -0.0099867694, -0.1140085906, 0.0790717080, -0.0017501630, -0.3637793958, 0.0711752400, -0.4358693957, -0.2218455672, -0.2689252794, -0.1962115169, -0.2656750381, 0.0812993273, 0.0069824634, 0.1014400721, 0.0262011997, 0.0576482676, 0.0217018388, -0.0741789639, -0.1732584089, -0.0895812884, 0.1738332659, 0.1064018086, -0.1895400733, -0.0789529011, 0.1538878232, -0.0670526177, -0.1524123102, 0.0010911418, -0.0842931792, -0.1151188985, -0.1117466539, 0.1223236546, -0.0433986336, -0.0040757176, -0.1289479882, 0.1111547053, 0.1411419362, -0.1916403323, 0.0850740671, -0.0131145054, -0.0946878791, -0.1666542739, 0.1193560213, -0.2053040862, 0.0523784198, -0.1666635722, 0.0282678679, 0.1161710843, 0.0699258372, -0.1873057038, -0.2331277430, 0.0784494355, 0.0785003379, 0.0889152214, -0.0918392614, -0.0988230705, 0.0292768925, 0.0674991384, -0.2482238561, -0.1580610722, -0.1363464296, 0.0803149343, 0.0715999827, 0.1109969988, -0.2449965924, 0.0924688727, -0.1876352578, -0.1958994865, 0.0496948250, -0.0638024956, -0.0204172116, -0.1832481474, 0.1427955478, -0.0770903230, -0.0745129436, -0.0876834020, -0.2426925749, -0.0202637035, -0.0092112692, -0.1045170277, -0.0618227273, 0.0397751816, -0.1497135162, 0.0481802225, -0.4414933622, 0.0437753871, -0.4066970050, -0.1407308280, -0.4672582150, 0.0653865710, -0.0847212002, 0.0051625408, 0.1500830501, -0.2316653579, 0.1766400337, -0.1342189312, -0.1887376010, -0.0211548693, -0.0738927647, 0.1104777455, -0.0315401293, 0.1251067221, 0.0506377332, -0.0571601801, -0.2750697136, 0.0895435885, -0.3748017848, -0.0830723047, -0.2718878090, -0.1469997019, -0.0728404000, -0.1081395373, -0.0128629683, -0.2790794075, 0.1005097777, -0.2006919235, 0.1139715984, 0.0625283197, 0.1105332673, -0.1527388096, -0.1178504527, -0.1247051284, -0.2064709365, -0.1558209211, 0.0589411035, 0.0212182049, -0.1213130429, -0.0405663252, 0.0279952120, -0.1278322786, -0.0154560655, 0.0488821492, 0.0838156044, 0.0444815196, -0.2164281756, 0.0463726819, 0.0634468794, -0.2170652747, -0.1757869869, 0.0028890269, -0.0244393814, -0.1445420831, 0.1283405274, -0.0257672518, -0.0636844337, -0.1656255275, 0.1563579440, 0.2173445970, -0.0184482150, 0.0988323912, -0.1846909374, 0.0059815431, 0.0891821533, -0.2159999907, 0.0301202349, 0.0759764537, 0.0927304924, -0.1869774312, 0.1019796357, 0.0991499722, -0.0480621569, 0.0863502324, -0.1774939597, 0.1037621051, 0.1122221649, 0.0811522081, -0.0947463959, 0.1033147573, -0.0603188053, -0.1852647662, -0.1354732811, 0.1233556122, -0.0202214718, 0.1311325133, 0.0195777602, 0.0045353984, -0.1286897212, -0.0370111242, 0.0917085931, -0.1019084230, 0.0956951305, 0.1076587811, -0.0250610579, 0.1150053740, -0.1023881212, 0.0545291081, 0.0962057263, -0.1757005751, -0.1582677215, -0.1162295491, 0.0423865207, -0.0709799901, 0.0692065507, 0.0853867978, 0.0914684385, -0.1231084839, 0.0296006482, 0.0991845801, -0.2183178216, -0.0762869567, -0.0854076967, -0.0901859924, -0.0644383356, 0.1359799802, -0.1334623396, -0.1360804737, 0.1111428738, -0.0202595647, 0.1209417880, 0.1227169409, 0.0444842726, 0.0532081090, 0.0477536172, -0.1557416320, -0.1936396807, 0.1038546637, -0.4474337101, -0.1746470630, -0.2948983014, 0.0588010848, -0.2177494168, 0.1205293313, 0.1138640866, -0.1046277806, 0.0531141311, 0.0303069465, 0.0304756630, -0.1088762805, -0.1712116003, 0.0238315575, -0.1676577479, 0.0241640862, 0.0405544229, 0.0189914051, -0.0641096085, 0.0435008369, -0.2856019139, 0.0617520586, -0.2364980429, 0.0784211084, 0.1290650517, -0.0652423501, -0.1920296997, 0.0307029076, 0.1161508784, -0.1667811126, 0.1201951355, 0.0884613246, 0.0094710011, 0.0334959961, 0.1043016240, -0.2293009609, -0.0228431784, -0.1703388840, 0.1693005860, -0.0720981732, -0.0343847834, -0.0560972504, -0.1859126091, 0.0316642039, 0.1394415945, -0.0990155935, 0.1055116951, 0.0593732186, 0.0107235527, -0.0298924241, -0.2235109061, -0.0866924003, -0.1690305471, 0.0199368317, -0.1942343563, -0.0101253176, -0.0646858364, 0.1230970249, 0.0591345429, 0.1059149727, -0.2579806149, 0.1434795707, -0.0314936265, 0.0561650731, -0.1752099246, 0.1215507835, -0.2156004459, -0.1101354435, -0.0543472804, -0.0303682219, -0.1507365257, 0.1263486892, 0.0180095546, -0.0490519591, 0.1474925131, -0.2081524730, 0.1120982021, -0.1645116657, 0.1012340337, 0.0211847909, 0.1015998572, -0.2263229936, 0.1147422194, -0.0837695971, 0.0937239975, 0.1011430994, 0.0772026107, 0.0989121348, -0.2517376840, -0.1260315776, -0.3429927230, -0.0628955588, -0.2188145518, 0.0405221842, -0.2644318044, 0.1329070330, -0.1975095719, -0.0547465347, -0.0140286749, 0.1488368660, 0.1079123318, 0.0769242942, 0.1032901779, -0.1549068391, -0.0198123455, -0.2896574438, -0.1283684820, -0.2468162328, 0.1094543189, -0.0388105661, 0.1072532907, -0.0548396520, 0.1240792051, 0.1132753119, -0.0084816795, -0.1080080867, 0.1101638973, 0.0878897011, -0.3807760179, 0.1087206677, -0.5362048149, -0.1067878902, -0.3478533328, -0.1861016452, 0.0238289088, -0.1227438375, -0.0287012011, 0.0812339187, -0.1893452555, 0.1431310028, -0.1055349037, 0.0997002721, 0.1017673612, -0.0074333004, -0.2130467147, -0.0922446921, -0.1157935858, 0.0651372671, -0.0306111146, 0.0564761423, -0.1665369123, 0.1445019096, -0.1828008145, -0.1365638226, 0.1341010183, 0.1213357970, -0.1142696440, 0.1054038405, 0.0401499085, -0.0652808771, 0.0873003304, 0.0460512862, -0.1864678860, -0.0038918683, -0.2761432528, -0.1112113595, -0.1297888309, -0.1699821055, 0.1758024991, -0.1523880810, 0.1024964526, -0.0821683183, -0.1181852892, 0.0148613900, 0.0081910910, -0.0655379444, -0.1080575585, -0.1619266719, -0.1626684219, 0.0669405386, -0.1243917868, 0.0073967292, -0.1195604354, 0.0341915600, -0.0574047863, 0.1327809393, -0.0537500717, -0.0917906314, 0.1640455127, -0.0523945540, -0.1744100302, 0.0859257057, 0.1089354157, -0.1436013430, 0.1083866656, -0.0580495894, 0.1051216722, 0.0359584168, 0.1087691039, -0.1887524575, -0.0314777680, -0.2343404591, 0.0942912623, -0.0236859750, 0.1216959655, 0.1015756205, 0.0225699153, -0.1502569765, -0.2363986522, 0.0201721303, -0.2675614953, -0.0519054979, 0.0657159090, -0.0951863676, -0.2313931286, 0.0331501253, -0.3502064049, 0.0278789643, 0.0766931027, -0.0661564544, 0.0251529869, -0.2966395020, 0.0876397118, -0.0942962915, 0.0625704750, -0.1326111704, 0.0640862584, 0.0579329878, -0.1028453186, -0.1378080398, -0.1051839590, 0.1528898180, -0.2869191468, 0.0482493602, -0.1098229066, -0.0797652826, -0.0552586950, -0.2271859795, -0.1172993332, 0.0262962133, -0.0550888032, 0.1165473387, 0.1283110678, 0.0651248544, 0.1208323166, -0.1150964722, -0.0888606980, -0.0634643137, -0.1526756138, -0.0111145899, 0.1080781594, -0.0858876705, -0.1374147683, 0.1441121548, -0.0090864254, -0.0835965723, -0.0950684249, 0.0161997024, -0.0759373531, 0.1296568960, 0.0704091489, 0.0364653617, -0.1867629886, 0.1253468841, -0.0356679820, 0.0598345138, -0.0866230726, -0.0276513081, -0.4248107374, -0.1476060599, -0.5993782878, -0.1147388816, -0.2186965048, 0.0469368547, -0.2449034750, -0.0721205994, -0.2206712961, -0.1523207277, 0.0404771082, -0.1329013407, 0.0859224498, 0.1194223091, 0.1065775827};

#endif

#endif
